
\data\
ngram 1=7364
ngram 2=72954
ngram 3=58111

\1-grams:
-4.721752	!	-0.3060739
-1.979313	"	-1.098071
-3.377539	$	-2.384718
-4.055575	%	-0.6600834
-1.398013	'	-2.933904
-1.241484	,	-1.045177
-1.649569	-	-1.176215
-1.152591	.	-1.292734
-4.808902	/	-0.3828498
-3.956965	:	-0.4195814
-3.924296	;	-0.3627127
-1.906295	</s>
-2.212305	<NUM>	-1.293515
-5.763145	<NUM>k	-0.217142
-5.462115	<NUM>nd	-0.4493015
-5.462115	<NUM>rd	-0.2335395
-4.382934	<NUM>s	-0.6495557
-5.286024	<NUM>st	-0.6105075
-3.510292	<NUM>th	-1.19506
-99	<s>	-0.9948245
-2.139896	?	-0.962562
-4.763145	[	-1.041363
-4.683964	]	-0.4052048
-1.789832	a	-1.044699
-5.286024	aaron	-0.1834449
-5.161085	abandoned	-0.3252088
-5.763145	abbott	-0.2425124
-4.587054	abc	-0.4007667
-4.808902	abdul	-0.449766
-4.763145	abe	-0.3821414
-5.763145	abet	-0.2317702
-5.462115	abetting	-0.4699727
-5.161085	abiding	-0.6976511
-5.763145	abilities	-0.217142
-4.918047	ability	-0.3885181
-5.763145	ablazing	-0.233548
-3.67324	able	-1.979178
-5.462115	abnormal	-0.4809855
-4.300747	abolish	-1.206828
-5.763145	abolition	-0.2371472
-2.636364	about	-0.7345597
-4.860055	above	-0.2718335
-4.231666	abraham	-1.097859
-5.462115	abroad	-0.4699389
-5.763145	absence	-0.211099
-4.763145	absolute	-0.3632353
-4.100387	absolutely	-0.4174813
-5.763145	abundance	-0.211099
-5.763145	abundant	-0.211099
-4.763145	abuse	-0.3478215
-4.860055	abused	-0.14969
-5.763145	academic	-0.2427875
-4.721752	accept	-0.4251409
-5.161085	acceptable	-0.2847944
-5.161085	accepting	-0.3346225
-4.507873	access	-1.159577
-5.161085	accident	-0.3134108
-5.763145	accord	-0.2427388
-4.984993	according	-0.6292705
-5.763145	accordingly	-0.2421786
-4.984993	accords	-0.4236479
-5.763145	accountable	-0.2409509
-5.462115	accountants	-0.4493015
-5.763145	accounting	-0.2427882
-4.763145	accurate	-0.3275625
-5.763145	accurately	-0.211099
-5.763145	accuse	-0.2343944
-5.064175	accused	-0.4145574
-5.763145	accusing	-0.2421952
-5.763145	accustomed	-0.233548
-5.462115	ace	-0.479552
-5.763145	aced	-0.2427448
-4.918047	achieve	-0.3287979
-5.161085	achieved	-0.2063891
-5.286024	achievement	-0.2000009
-5.286024	achievements	-0.1721427
-5.462115	acids	-0.4749054
-4.918047	acknowledge	-0.4278333
-5.763145	acknowledged	-0.2367029
-5.763145	acres	-0.2367029
-4.022782	across	-1.203453
-3.943601	act	-0.864888
-5.462115	actblue	-0.4803812
-5.462115	acting	-0.2412736
-4.808902	action	-0.4677065
-5.763145	actions	-0.2422462
-5.763145	activate	-0.2356866
-5.763145	activated	-0.211099
-5.763145	active	-0.2329475
-5.462115	actively	-0.4809915
-5.763145	actors	-0.2367029
-5.763145	actress	-0.2317363
-5.462115	acts	-0.2106813
-5.763145	actual	-0.2427852
-3.164354	actually	-0.5756078
-4.918047	ad	-0.2979491
-5.763145	adage	-0.217142
-4.649201	adam	-0.6034375
-5.161085	adams	-0.2116483
-5.763145	adapters	-0.217142
-4.286024	add	-0.426698
-4.763145	added	-0.4141413
-5.763145	addicts	-0.2367029
-5.286024	adding	-0.2342638
-5.286024	addison	-0.3546398
-5.286024	addition	-0.3508732
-5.064175	additional	-0.2138172
-5.161085	address	-0.4658798
-5.763145	addresses	-0.217142
-5.763145	adhere	-0.211099
-5.286024	adjust	-0.3539848
-5.462115	adjusted	-0.2093165
-5.462115	adjustment	-0.2050255
-5.763145	adjustments	-0.2386294
-3.758823	administration	-0.884681
-5.763145	administrations	-0.217142
-5.763145	administrator	-0.2427875
-5.763145	admirals	-0.211099
-5.462115	admired	-0.2415389
-4.918047	admit	-0.2972885
-5.763145	admits	-0.2354176
-5.161085	admitted	-0.4674276
-5.763145	admonish	-0.2343944
-5.763145	admonished	-0.2421952
-5.462115	adores	-0.4803977
-5.763145	adrenaline	-0.2395838
-4.763145	ads	-0.4459646
-5.763145	advance	-0.2427673
-5.286024	advanced	-0.2148947
-4.532696	advantage	-0.6223177
-5.763145	adverse	-0.2427897
-5.286024	advertising	-0.2038641
-4.918047	advice	-0.3795815
-5.763145	advisor	-0.217142
-5.763145	affair	-0.211099
-5.064175	affect	-0.2293248
-4.918047	affected	-0.3099217
-5.763145	affecting	-0.2317702
-5.763145	affectionately	-0.211099
-4.507873	afford	-0.5494456
-4.315987	affordable	-0.7886492
-4.763145	affording	-1.034289
-3.970753	afghanistan	-0.9562865
-5.763145	afghanistans	-0.2329475
-5.763145	afghans	-0.2411811
-4.315987	afraid	-1.095024
-4.507873	africa	-1.428106
-4.064175	african	-1.93132
-3.267601	after	-0.6702648
-5.286024	afternoon	-0.3598713
-5.286024	afterwards	-0.6105075
-5.763145	ag	-0.217142
-2.934485	again	-1.539353
-3.507872	against	-0.6265507
-3.956965	age	-0.8522189
-5.286024	aged	-0.3862085
-5.763145	agencies	-0.2405624
-5.462115	agency	-0.2334553
-4.17208	agenda	-0.785824
-5.064175	agent	-0.2556541
-4.462115	agents	-0.3772331
-5.161085	ages	-0.4438835
-4.984993	aggressive	-0.1956598
-3.176558	ago	-1.238544
-4.401417	agree	-1.034325
-4.763145	agreed	-0.3585992
-4.918047	agreement	-0.5171844
-5.763145	agreements	-0.217142
-5.161085	agrees	-0.4699322
-5.462115	agriculture	-0.4809855
-5.763145	ags	-0.211099
-4.194943	ahead	-1.433005
-4.649201	aid	-0.2527532
-5.462115	aiding	-0.4699389
-5.763145	aimlessly	-0.211099
-5.286024	ain	-0.6244732
-4.047142	air	-1.01066
-5.763145	aircraft	-0.2427703
-5.763145	airliner	-0.211099
-5.064175	airplane	-0.4048061
-4.918047	airplanes	-0.2921201
-5.462115	airwaves	-0.2045471
-5.763145	airways	-0.217142
-5.161085	aj	-0.1834286
-5.763145	ak	-0.2329475
-4.559025	al	-0.4403215
-4.440926	alabama	-0.7512395
-5.763145	alan	-0.2427897
-4.587054	alaska	-0.8419194
-5.763145	albert	-0.2427897
-5.763145	alcohol	-0.2317363
-5.763145	alcoholic	-0.211099
-5.763145	aldean	-0.211099
-4.860055	aldrin	-0.4071889
-4.559025	alexis	-0.462976
-5.161085	alfonso	-0.5026748
-5.763145	alfred	-0.2427897
-4.808902	alice	-0.3111898
-5.286024	alicia	-0.2137875
-3.780874	alien	-0.7931316
-5.763145	alienating	-0.242774
-3.992293	aliens	-0.6144137
-5.763145	aligned	-0.2412991
-5.763145	alike	-0.211099
-4.649201	alive	-0.775884
-2.412509	all	-0.8440058
-5.462115	allegiance	-0.4717505
-5.763145	allentown	-0.217142
-5.763145	alley	-0.211099
-5.286024	allies	-0.2086078
-4.918047	allison	-0.5548259
-5.462115	allocation	-0.4807322
-4.109932	allow	-0.4400036
-3.62013	allowed	-0.7817724
-4.382934	allowing	-0.3020119
-5.763145	allows	-0.2401186
-5.763145	alluded	-0.2356866
-5.763145	ally	-0.217142
-5.763145	allyn	-0.2427897
-3.584168	almost	-0.5825391
-4.257995	alone	-0.7655023
-3.804103	along	-0.8874847
-5.286024	alongside	-0.6365557
-4.484391	alphonse	-1.518367
-3.924296	already	-0.4347628
-3.328576	also	-0.4882609
-5.462115	alternative	-0.2106716
-5.763145	alternatives	-0.211099
-4.382934	although	-0.772249
-5.286024	aluminum	-0.1721427
-5.462115	alveda	-0.2110942
-3.296277	always	-0.4887199
-3.737839	am	-0.7037768
-4.808902	amazed	-0.4239752
-3.567245	amazing	-0.856382
-4.860055	ambassador	-0.3379556
-5.462115	ambition	-0.2073308
-5.763145	ambulance	-0.217142
-4.183361	amendment	-0.8472569
-5.763145	amer	-0.242789
-2.839901	america	-1.449139
-2.944259	american	-1.217826
-3.687598	americans	-0.8828415
-5.462115	amish	-0.4809676
-5.286024	amnesty	-0.3729931
-5.763145	amodei	-0.2371472
-4.484391	among	-0.8732808
-5.763145	amongst	-0.2356866
-5.064175	amorphous	-0.5291725
-4.649201	amount	-0.6566225
-4.918047	amounts	-1.179514
-5.763145	amy	-0.2427897
-2.806976	an	-0.9416741
-5.763145	analyst	-0.211099
-4.984993	analysts	-0.3237342
-5.763145	ancestors	-0.2427868
-5.462115	anchor	-0.2096417
-5.462115	anchors	-0.1991965
-5.763145	ancient	-0.2427388
-1.599775	and	-0.7965383
-5.462115	anderson	-0.1834458
-4.808902	andrew	-0.3926933
-4.984993	andy	-0.3691085
-5.763145	anemic	-0.2424262
-4.721752	angel	-0.4026209
-4.649201	angela	-0.5296832
-4.649201	angeles	-0.5083486
-4.918047	angels	-0.3662955
-4.860055	anger	-0.4435404
-5.064175	angle	-0.5110519
-5.763145	angles	-0.211099
-5.462115	angrier	-0.1991965
-4.194943	angry	-0.5930927
-5.462115	anguish	-0.4800802
-5.161085	animal	-0.3067496
-4.587054	animals	-0.4104201
-5.064175	annihilated	-0.569148
-4.348172	announce	-0.3688713
-3.849331	announced	-0.6839256
-5.462115	announcement	-0.1834458
-5.462115	announcer	-0.1834458
-5.763145	announcers	-0.217142
-4.918047	announcing	-0.4279462
-3.535258	another	-0.5347852
-3.623266	answer	-0.7012197
-5.462115	answered	-0.2096021
-5.161085	answering	-0.2301749
-4.559025	answers	-0.3778479
-5.763145	anthony	-0.211099
-4.683964	anti	-1.1041
-5.462115	anticipated	-0.4493015
-5.161085	antonio	-0.2003423
-4.808902	anwr	-0.5001274
-3.166548	any	-0.715281
-3.300747	anybody	-0.6428412
-3.604782	anymore	-1.319764
-4.194943	anyone	-0.4976082
-5.763145	anyplace	-0.2426706
-3.243317	anything	-0.9175268
-4.808902	anytime	-0.4457377
-3.956965	anyway	-1.28845
-4.072949	anywhere	-0.9134924
-4.808902	aoc	-0.4955663
-5.763145	apache	-0.2427897
-4.860055	apart	-0.4124267
-4.129676	apartment	-0.8601911
-4.984993	apartments	-0.3529797
-5.763145	apologies	-0.2409509
-4.484391	apologize	-1.099134
-5.763145	apology	-0.217142
-4.617017	app	-0.3712067
-5.462115	apparently	-0.2077006
-5.763145	appealing	-0.2354176
-5.763145	applauded	-0.211099
-5.064175	applause	-0.2884973
-4.559025	apple	-0.5095121
-4.484391	apples	-0.5695457
-5.763145	applicable	-0.233548
-5.462115	application	-0.2091198
-5.763145	applications	-0.211099
-5.286024	applied	-0.3752111
-5.763145	applies	-0.233548
-5.763145	appoint	-0.2427845
-4.721752	appointed	-0.3311094
-5.763145	appraised	-0.2354176
-5.763145	appraisers	-0.2317363
-3.950232	appreciate	-1.100769
-5.286024	appreciated	-0.2178155
-5.763145	appreciation	-0.2409509
-5.763145	apprehended	-0.2420241
-5.763145	approached	-0.2424367
-5.286024	appropriate	-0.2343081
-4.649201	approval	-0.2976422
-5.462115	approvals	-0.2355167
-4.382934	approve	-0.6426919
-4.300747	approved	-0.5025973
-5.763145	approves	-0.2354176
-4.984993	approximately	-0.300171
-4.918047	apps	-0.3862701
-5.286024	april	-0.3606765
-5.763145	apropos	-0.211099
-5.462115	aptitude	-0.2403364
-5.763145	aptly	-0.2427665
-5.763145	ar	-0.2329475
-4.462115	arab	-0.5684069
-4.331781	arabia	-0.7895908
-5.161085	arabs	-0.3076962
-3.970753	aragua	-0.9597854
-2.43192	are	-0.7193854
-4.206842	area	-0.6502653
-4.315987	areas	-0.6753256
-4.109932	aren	-1.645032
-4.401417	arena	-0.497428
-5.763145	arenas	-0.217142
-4.860055	argument	-0.2499266
-5.064175	aric	-0.3624147
-4.219077	arizona	-0.425483
-5.064175	arkansas	-0.3623254
-4.918047	arm	-0.3612822
-5.763145	armageddon	-0.2409509
-5.763145	armed	-0.2427875
-5.161085	armor	-0.4671306
-5.763145	armored	-0.2427868
-3.943601	arms	-0.8409677
-4.072949	army	-0.8184313
-4.129676	arnold	-0.787102
-3.55363	around	-0.7495397
-5.286024	arrest	-0.2164252
-4.507873	arrested	-0.5430827
-5.763145	arresting	-0.2409328
-5.763145	arrests	-0.2427658
-5.286024	arrived	-0.2145078
-5.462115	arriving	-0.2110426
-4.348172	arrow	-0.8593791
-5.763145	arsenal	-0.211099
-5.161085	art	-0.3106697
-4.984993	article	-0.2794828
-5.286024	artificial	-0.3545125
-5.763145	artificially	-0.217142
-5.462115	artisans	-0.2127265
-5.462115	artist	-0.2127265
-5.286024	artists	-0.1899043
-2.902208	as	-0.8753445
-5.161085	ashamed	-0.4654632
-5.763145	asheville	-0.217142
-5.763145	ashore	-0.217142
-4.440926	asia	-0.7735757
-4.763145	asian	-0.5346577
-5.462115	asians	-0.1834458
-5.462115	aside	-0.2101663
-3.698687	ask	-0.670501
-3.918047	asked	-0.4960507
-3.876654	asking	-0.9871159
-5.462115	asks	-0.2407891
-4.984993	asleep	-0.4520935
-5.462115	asphalt	-0.1834458
-5.763145	aspirations	-0.241786
-5.763145	aspire	-0.233548
-5.763145	aspired	-0.233548
-4.348172	ass	-0.7202805
-5.462115	assassin	-0.4809555
-5.161085	assassinated	-0.4438835
-5.462115	assassination	-0.2171412
-4.462115	assault	-1.438877
-4.808902	assaulted	-0.4142037
-5.462115	assaulting	-0.2156132
-5.763145	assemblage	-0.2371472
-5.763145	assemble	-0.2317702
-5.763145	assembled	-0.211099
-5.161085	asses	-0.2095827
-5.763145	asset	-0.2427837
-4.860055	assets	-0.2674267
-5.462115	assignment	-0.1834458
-5.064175	associated	-0.4314922
-5.763145	association	-0.217142
-4.507873	assume	-0.4983219
-5.064175	assumed	-0.1814682
-5.286024	assuming	-0.3728046
-5.462115	assyrians	-0.1834458
-5.763145	astoria	-0.211099
-4.763145	astronaut	-0.4627424
-5.763145	astronauts	-0.233548
-5.763145	astronomical	-0.211099
-5.286024	asylum	-0.2135736
-4.183361	asylums	-1.241561
-2.677854	at	-1.0284
-5.763145	ate	-0.2406295
-4.721752	athlete	-1.162011
-5.462115	athletes	-0.2011487
-5.286024	atlanta	-0.2073121
-5.286024	atlantic	-0.2110789
-5.763145	atrocious	-0.242789
-5.462115	atrocities	-0.2410457
-5.462115	atrocity	-0.211153
-4.484391	attack	-0.2839898
-4.683964	attacked	-0.4418058
-5.462115	attacking	-0.2110281
-5.763145	attacks	-0.233548
-5.763145	attempted	-0.2427897
-5.763145	attempting	-0.233548
-5.763145	attempts	-0.211099
-5.064175	attention	-0.2565904
-5.161085	attitude	-0.16966
-4.047142	attorney	-1.59343
-5.763145	attractive	-0.242759
-4.161085	audience	-0.9797321
-5.763145	audiences	-0.211099
-5.763145	augusta	-0.233548
-5.763145	aunts	-0.211099
-3.930636	aurora	-0.9056123
-5.763145	auspices	-0.2371472
-5.763145	austin	-0.2427703
-5.763145	austria	-0.2317363
-5.763145	author	-0.2371472
-5.763145	authorities	-0.2422462
-4.763145	authority	-0.3456357
-5.286024	authorization	-0.2072796
-5.763145	authorized	-0.2420241
-5.763145	autistic	-0.2426661
-3.977815	auto	-0.8927241
-5.763145	automaking	-0.2427553
-4.183361	automatic	-1.044484
-5.064175	automatically	-0.2777874
-4.683964	automobile	-0.332585
-4.918047	automobiles	-0.2962098
-5.462115	automotive	-0.480981
-5.161085	autos	-0.666024
-5.286024	autoworker	-0.2282104
-4.532696	autoworkers	-0.2512646
-5.763145	auw	-0.2427208
-5.064175	available	-0.3743741
-5.462115	avalanche	-0.211153
-5.161085	ave	-0.6977125
-5.763145	avenue	-0.217142
-4.808902	average	-0.4403375
-5.286024	avoid	-0.2029855
-5.763145	await	-0.2413758
-5.763145	awaits	-0.2409509
-5.462115	award	-0.1992329
-5.763145	awarded	-0.233548
-5.763145	awarding	-0.2422597
-5.763145	awards	-0.2409509
-5.462115	aware	-0.2050255
-3.410962	away	-1.103542
-5.286024	awfully	-0.6413199
-5.286024	ay	-0.6165504
-5.763145	azerasians	-0.2386294
-5.286024	b	-0.3606685
-5.286024	babies	-0.3269882
-3.733761	baby	-1.135063
-2.786336	back	-1.143494
-5.161085	backed	-0.3426028
-5.462115	background	-0.4553445
-5.763145	backgrounds	-0.2420871
-5.462115	backing	-0.2101663
-5.462115	backs	-0.4753497
-4.484391	backstage	-0.7246888
-4.984993	backup	-0.6203046
-5.763145	backwards	-0.211099
-5.286024	backyard	-0.1764597
-4.918047	bacon	-0.4088896
-3.089203	bad	-0.62662
-3.893913	badly	-0.7680645
-5.462115	bag	-0.2259466
-4.507873	bagram	-1.06604
-5.763145	bags	-0.2413758
-5.763145	baier	-0.211099
-5.763145	bail	-0.2386294
-5.763145	bailed	-0.2416276
-5.763145	baked	-0.211099
-5.763145	balanced	-0.211099
-5.763145	baldwin	-0.2400907
-4.219077	ball	-0.3859653
-5.462115	ballad	-0.4717505
-4.315987	ballot	-0.6273127
-4.064175	ballots	-0.639397
-5.286024	ballroom	-0.2310856
-5.763145	balls	-0.2412991
-3.780874	ban	-1.098433
-5.462115	banana	-0.4809915
-5.763145	bananas	-0.217142
-5.763145	bang	-0.217142
-5.763145	banging	-0.2413495
-5.064175	bank	-0.3730422
-5.763145	banker	-0.211099
-5.763145	bankrupting	-0.2427703
-4.984993	banks	-0.4564697
-4.918047	banned	-0.328357
-5.286024	banning	-0.2426586
-5.286024	bar	-0.6421967
-4.401417	barack	-1.509983
-5.462115	barbaric	-0.2427695
-5.462115	bare	-0.4493015
-5.161085	barely	-0.2864046
-4.984993	barn	-0.2355266
-5.763145	barnett	-0.211099
-5.763145	baron	-0.211099
-5.462115	barr	-0.223591
-5.763145	barrack	-0.211099
-4.984993	barrasso	-0.3374609
-4.918047	barrel	-0.371047
-5.462115	barren	-0.2137907
-5.462115	barrett	-0.2142774
-4.559025	barron	-0.672339
-4.860055	barry	-0.3502553
-4.559025	base	-0.509863
-4.860055	baseball	-0.2300349
-4.587054	based	-0.7807267
-5.064175	basement	-0.2502088
-5.763145	basements	-0.2371472
-5.286024	bases	-0.3501637
-4.860055	basic	-0.228015
-4.315987	basically	-0.2361764
-5.462115	basis	-0.2045471
-5.161085	basketball	-0.4715173
-5.763145	bat	-0.2409261
-5.763145	bath	-0.217142
-5.286024	bathing	-0.6421854
-5.763145	bathroom	-0.2317363
-5.763145	battered	-0.2420241
-5.462115	batteries	-0.4553445
-4.918047	battery	-0.3162383
-4.918047	battle	-0.2187769
-5.462115	battles	-0.2054062
-4.683964	bay	-0.3220932
-5.286024	bazzi	-0.6105075
-2.332908	be	-0.7114294
-4.17208	beach	-0.7263129
-4.683964	beaches	-0.4175203
-5.763145	beacon	-0.2371472
-4.300747	bear	-1.477072
-5.462115	beast	-0.4553445
-4.119692	beat	-0.3775246
-5.064175	beaten	-0.2955218
-4.462115	beating	-0.4495132
-5.462115	beats	-0.2342347
-5.462115	beauties	-0.4553445
-2.982108	beautiful	-0.5855256
-4.559025	beautifully	-0.3517275
-4.532696	beauty	-0.6857428
-4.014957	became	-0.4452102
-2.487833	because	-1.299666
-5.763145	beck	-0.211099
-3.87105	become	-0.6564676
-4.860055	becomes	-0.2375378
-5.161085	becoming	-0.3381162
-4.507873	bed	-0.4178297
-4.984993	bedbug	-0.6203046
-5.763145	bedrock	-0.2371472
-4.984993	bedroom	-0.4624474
-5.462115	beds	-0.4493015
-2.790017	been	-0.645667
-5.462115	beer	-0.2274674
-3.227851	before	-0.8896584
-5.763145	began	-0.2413758
-5.286024	beggars	-0.3269882
-5.286024	begging	-0.3761265
-3.984994	begin	-1.177918
-4.129676	beginning	-1.154415
-4.257995	begins	-0.9467998
-5.064175	behalf	-0.3559407
-5.462115	behave	-0.2254907
-5.462115	behaving	-0.1834458
-4.081903	behind	-0.5367935
-5.161085	beijing	-0.688473
-3.330176	being	-0.5749125
-5.286024	beings	-0.2205023
-5.763145	bel	-0.2329475
-5.763145	beliefs	-0.211099
-4.649201	believable	-0.7888225
-3.160001	believe	-1.417192
-4.763145	believed	-0.3146968
-5.763145	believer	-0.2397898
-5.763145	believers	-0.217142
-5.161085	believes	-0.3015729
-5.763145	belittle	-0.2354176
-5.161085	bell	-0.1728131
-5.763145	bellaman	-0.217142
-4.918047	bells	-0.4114253
-4.331781	belong	-0.874383
-4.194943	belongs	-1.570541
-4.440926	ben	-0.4518526
-5.763145	bend	-0.217142
-5.286024	bending	-0.2089522
-5.763145	beneficiary	-0.2371472
-4.721752	benefit	-0.315771
-4.047142	benefits	-0.7362484
-5.763145	benny	-0.24278
-5.462115	bent	-0.4736201
-5.763145	bergman	-0.211099
-5.763145	berlin	-0.2396321
-4.183361	bernie	-1.014404
-5.763145	beside	-0.24278
-5.763145	besides	-0.2367029
-5.462115	besieged	-0.2102745
-4.984993	bessent	-0.3571487
-5.462115	besson	-0.4553445
-3.370448	best	-0.603279
-5.064175	bestseller	-0.3768425
-5.763145	bestsellers	-0.217142
-5.286024	bestselling	-0.3546164
-4.808902	bet	-0.2661311
-4.286024	betrayal	-0.857729
-5.763145	betrayals	-0.2367029
-3.167649	better	-0.8239605
-5.763145	betting	-0.2414359
-5.763145	betty	-0.217142
-4.150361	between	-0.5959739
-5.763145	beverly	-0.2427897
-5.763145	beware	-0.217142
-4.348172	beyonce	-0.5478125
-4.587054	beyond	-0.305907
-5.763145	bianco	-0.211099
-5.763145	bias	-0.211099
-5.763145	biased	-0.211099
-4.984993	bibi	-0.3071373
-5.286024	bid	-0.2139509
-5.763145	bidding	-0.2427882
-3.428691	biden	-0.6725637
-5.763145	bids	-0.2409509
-2.898634	big	-0.5380865
-3.76751	bigger	-0.7601314
-3.264834	biggest	-0.6461826
-5.286024	biggs	-0.3269882
-5.161085	bigots	-0.672067
-3.785421	bill	-0.8598069
-3.992293	billion	-0.5100898
-3.85466	billions	-1.4253
-4.721752	bills	-0.3960566
-4.808902	billy	-0.9999813
-5.286024	bin	-0.6105075
-5.763145	bind	-0.211099
-4.587054	bing	-1.017612
-5.462115	birdie	-0.2385015
-5.286024	birds	-0.3269882
-4.984993	birthday	-0.4236479
-4.683964	birthright	-1.1083
-4.984993	bishop	-0.5535433
-3.525099	bit	-0.6259435
-5.462115	bitch	-0.4493015
-5.286024	bite	-0.2077087
-5.462115	bitten	-0.2415892
-5.462115	bitter	-0.2170792
-3.794662	black	-0.6960427
-5.462115	blackouts	-0.2106813
-5.462115	blacks	-0.4553445
-4.683964	blah	-1.184914
-5.462115	blake	-0.2110974
-4.617017	blame	-0.4474738
-5.763145	blamed	-0.211099
-5.462115	blaming	-0.235253
-5.763145	blank	-0.211099
-5.763145	blankets	-0.2409509
-5.763145	blasio	-0.211099
-5.462115	blast	-0.2396109
-5.763145	blasted	-0.2317363
-5.763145	blasting	-0.211099
-5.462115	blatantly	-0.2427515
-5.763145	blaze	-0.2425851
-5.462115	blazed	-0.2420466
-5.286024	blazing	-0.3538767
-5.763145	bleachers	-0.211099
-5.462115	bleed	-0.2222875
-5.763145	bleeding	-0.211099
-3.865518	bless	-1.457986
-5.763145	blessing	-0.2371472
-4.401417	blew	-0.7298535
-5.286024	blocked	-0.3738345
-5.286024	blocks	-0.2108805
-5.763145	blond	-0.2427785
-4.401417	blood	-0.3798847
-5.763145	blooded	-0.2422964
-5.763145	bloodiest	-0.2427246
-5.161085	bloodshed	-0.3333068
-5.763145	bloodsuckers	-0.2416644
-4.286024	bloodthirsty	-1.376255
-5.286024	bloody	-0.2110442
-5.763145	bloom	-0.2424929
-4.984993	bloomberg	-0.4521043
-4.507873	blow	-0.5027605
-4.401417	blowing	-0.529632
-5.462115	blown	-0.2414953
-4.559025	blows	-0.7934084
-5.763145	blowtorch	-0.211099
-4.808902	blue	-0.3234895
-5.763145	bmws	-0.217142
-5.161085	bo	-0.3167599
-4.808902	board	-0.3179309
-5.763145	boards	-0.2411811
-5.064175	boat	-0.3624088
-5.763145	boats	-0.211099
-4.860055	bob	-0.5166271
-3.977815	bobby	-1.051384
-4.532696	body	-0.3927535
-5.763145	bodybuilder	-0.211099
-5.763145	bodybuilding	-0.2427575
-5.763145	boebert	-0.211099
-4.763145	boeing	-0.3977214
-5.763145	boiler	-0.242768
-5.763145	boisterous	-0.217142
-4.440926	bolder	-1.316774
-4.918047	bolton	-0.1545857
-5.462115	bomb	-0.2332616
-5.286024	bombed	-0.3269882
-4.984993	bond	-0.2680039
-5.462115	bondi	-0.2081942
-5.763145	bone	-0.2427897
-5.462115	bonus	-0.4493015
-4.918047	booed	-0.4354589
-5.763145	booing	-0.2317702
-4.271783	book	-0.4750618
-4.808902	books	-0.485323
-4.300747	boom	-0.8901013
-5.763145	boomed	-0.2425334
-5.286024	booming	-0.2168892
-5.763145	boost	-0.211099
-5.763145	boosting	-0.2427897
-5.462115	booth	-0.2105191
-5.161085	bop	-0.4438835
-2.995247	border	-1.020221
-3.440926	borders	-0.9931664
-5.161085	bore	-0.4402632
-5.064175	bored	-0.2886409
-4.721752	boring	-0.4594476
-4.683964	born	-0.4415995
-4.649201	borrow	-0.7090214
-5.763145	borrowed	-0.2424172
-5.763145	bosom	-0.211099
-5.286024	boss	-0.2133708
-5.286024	bosses	-0.1821563
-3.977815	both	-0.5846794
-4.763145	bother	-0.2956055
-5.763145	bothered	-0.2329475
-5.763145	bothering	-0.2425731
-5.462115	bottle	-0.4753497
-4.109932	bottom	-0.7502415
-4.440926	bought	-0.2934047
-4.918047	boulevard	-0.4144605
-5.064175	boulos	-0.5016169
-5.161085	bounce	-0.6970046
-5.763145	bouncing	-0.217142
-5.462115	bow	-0.2299495
-4.860055	bowl	-0.4197962
-4.808902	box	-0.4742857
-5.462115	boxers	-0.4778346
-4.860055	boxes	-0.3482054
-5.286024	boxing	-0.2270434
-3.924296	boy	-1.022716
-5.763145	boys	-0.233548
-5.763145	brad	-0.2427897
-5.286024	brag	-0.3754624
-5.161085	bragg	-0.4438835
-5.763145	braggadocio	-0.217142
-5.763145	bragging	-0.241786
-4.918047	brain	-0.3850766
-5.763145	brainer	-0.211099
-5.462115	brainpower	-0.2332616
-5.763145	brains	-0.2414359
-5.763145	branching	-0.2416276
-4.484391	brand	-0.7175548
-5.763145	branders	-0.2386294
-5.462115	branding	-0.2085154
-4.484391	brandon	-0.3979572
-4.401417	brave	-0.465831
-5.763145	bread	-0.2317363
-4.617017	break	-0.3094468
-5.763145	breaker	-0.217142
-4.721752	breaking	-0.2733072
-5.286024	breaks	-0.3855875
-5.763145	breast	-0.2427882
-5.161085	breath	-0.6935544
-5.763145	breeze	-0.211099
-5.462115	bret	-0.24009
-4.331781	brett	-0.5583733
-5.763145	brewing	-0.2413127
-4.109932	brian	-0.8698726
-4.763145	bridge	-0.4520486
-5.763145	bridges	-0.211099
-5.763145	brief	-0.2427688
-4.918047	brien	-0.48048
-5.763145	brigades	-0.2421786
-5.286024	bright	-0.2425057
-5.763145	brighter	-0.2421659
-4.683964	brightest	-1.020865
-5.462115	brightly	-0.231731
-3.818662	brilliant	-0.6463768
-4.860055	brilliantly	-0.378253
-3.309827	bring	-1.034424
-4.109932	bringing	-0.6268822
-4.617017	brings	-0.2987544
-5.462115	brink	-0.4753497
-5.763145	brit	-0.2427897
-5.462115	britt	-0.4553445
-5.763145	broad	-0.2427897
-4.984993	broadcast	-0.4634671
-5.763145	broadcaster	-0.2422582
-5.286024	broadcasting	-0.3601945
-4.918047	broadest	-1.159509
-5.763145	broadway	-0.211099
-3.999717	broke	-1.046034
-4.918047	broken	-0.3162911
-5.763145	bronco	-0.242789
-4.808902	brother	-0.4501175
-4.984993	brothers	-0.326806
-4.047142	brought	-0.5718513
-4.617017	brown	-0.694337
-5.462115	brownouts	-0.2054062
-5.462115	brush	-0.4795017
-4.507873	brutal	-0.7186737
-4.918047	brutalizing	-1.174103
-5.064175	brutally	-0.4371179
-5.462115	bryan	-0.2110982
-5.462115	bubba	-0.2170887
-4.984993	buchanan	-0.4269492
-5.161085	buckhout	-0.4438835
-5.763145	buckingham	-0.211099
-5.286024	bucks	-0.3539832
-4.808902	budd	-0.4508255
-4.984993	budget	-0.4591004
-5.763145	budgets	-0.217142
-5.763145	budny	-0.211099
-5.763145	bug	-0.2413495
-5.462115	buggies	-0.1834458
-3.351525	build	-0.9982756
-4.649201	builder	-0.3843582
-5.462115	builders	-0.4699389
-3.617017	building	-0.7738438
-4.420722	buildings	-0.53461
-4.365205	builds	-0.7182881
-3.57002	built	-0.7774179
-5.763145	bulging	-0.2411074
-5.064175	bull	-0.3229099
-4.860055	bullet	-0.3068115
-5.462115	bulletproof	-0.48099
-5.064175	bullets	-0.1959729
-5.161085	bullied	-0.6893194
-5.161085	bulls	-0.3016981
-5.064175	bullshit	-0.2618378
-5.462115	bully	-0.4493015
-5.286024	bum	-0.3517366
-4.683964	bunch	-1.315591
-4.507873	burdens	-1.125623
-5.763145	burdensome	-0.242774
-5.763145	burgers	-0.217142
-5.763145	burgess	-0.2427897
-5.161085	burgum	-0.2836625
-5.763145	buried	-0.2426361
-4.984993	burn	-0.5996509
-4.918047	burned	-0.326676
-5.763145	burner	-0.217142
-4.617017	burning	-0.3519143
-5.763145	burns	-0.2317702
-5.286024	burst	-0.3540623
-5.462115	bursting	-0.2413382
-4.721752	burt	-0.5313239
-5.763145	bury	-0.2317702
-4.462115	bus	-0.3921373
-5.763145	bused	-0.2386294
-4.617017	buses	-0.3786442
-4.808902	bush	-0.2619854
-3.659341	business	-0.6087485
-4.109932	businesses	-0.7756462
-4.984993	businessman	-0.5828542
-5.286024	businessmen	-0.3562689
-5.763145	businesspeople	-0.211099
-5.462115	businessperson	-0.1834458
-5.064175	busing	-0.2758719
-5.763145	busses	-0.2425851
-4.918047	busted	-0.227905
-4.860055	buster	-0.8314227
-5.462115	busy	-0.2413405
-2.162063	but	-1.028771
-4.331781	butler	-0.8428139
-5.763145	butter	-0.211099
-5.462115	button	-0.2054062
-5.763145	buxo	-0.217142
-3.780874	buy	-0.8003297
-5.763145	buyback	-0.211099
-4.559025	buying	-0.3189073
-5.286024	buys	-0.2313526
-4.808902	buzz	-1.193869
-2.753694	by	-0.8858298
-4.401417	byron	-0.5237055
-4.462115	c	-1.290528
-5.763145	cab	-0.217142
-5.763145	cabin	-0.2416659
-5.763145	cabinet	-0.2427688
-5.161085	cadillac	-0.3330623
-4.860055	cage	-0.5658628
-5.763145	cages	-0.242783
-5.763145	cake	-0.2400907
-5.462115	calamity	-0.2085211
-3.729721	california	-0.7282165
-5.064175	caliphate	-0.2888753
-3.210477	call	-1.011544
-3.193771	called	-0.7094458
-3.911886	calling	-0.7205286
-4.081903	calls	-0.825094
-5.161085	calm	-0.502452
-5.462115	calvert	-0.4553445
-3.242007	came	-1.239889
-4.331781	camera	-0.2439533
-4.331781	cameras	-0.3988418
-5.763145	cames	-0.2386294
-5.286024	camp	-0.17697
-3.865518	campaign	-0.8004346
-5.462115	campaigned	-0.2395906
-4.17208	campaigning	-0.6589292
-5.286024	campaigns	-0.3531842
-2.560384	can	-1.008393
-4.918047	canada	-0.3864347
-4.808902	cancel	-0.3796407
-4.532696	canceled	-0.4690941
-5.462115	canceling	-0.4493015
-5.763145	cancelling	-0.2416276
-5.286024	cancer	-0.3269882
-3.992293	candidate	-0.6816767
-4.808902	candidates	-0.4158682
-4.559025	candy	-0.8524976
-4.047142	cannot	-0.5116988
-5.462115	cans	-0.2259466
-5.286024	cantor	-0.6421959
-5.763145	canyon	-0.2403892
-5.286024	cao	-0.1803493
-5.763145	cap	-0.217142
-5.462115	capability	-0.2363243
-4.918047	capable	-0.4088353
-5.286024	capacity	-0.3597248
-4.119692	capital	-0.7534462
-4.382934	capitol	-0.888907
-4.365205	capone	-1.069333
-5.286024	captain	-0.2111498
-5.462115	captive	-0.4808581
-5.763145	captives	-0.211099
-5.462115	captured	-0.2403379
-3.464292	car	-0.7574818
-4.984993	caracas	-0.6048146
-5.763145	carano	-0.211099
-5.462115	caravan	-0.1834458
-5.763145	caravans	-0.2317363
-5.763145	card	-0.2412991
-3.442999	care	-1.139826
-5.161085	cared	-0.3126618
-4.315987	career	-0.6257141
-5.462115	careers	-0.2164945
-4.401417	careful	-0.6500611
-5.462115	caregiver	-0.232923
-4.617017	caregivers	-1.010434
-4.507873	cares	-0.690479
-5.763145	caring	-0.2409509
-5.462115	carlo	-0.4493015
-5.161085	carlson	-0.1957709
-4.860055	carmen	-0.3445046
-5.064175	carnage	-0.8329621
-3.33501	carolina	-0.8323218
-5.763145	carolinians	-0.2420871
-5.763145	carpenter	-0.211099
-5.763145	carranza	-0.211099
-5.763145	carrara	-0.2427793
-5.763145	carrie	-0.2427388
-5.462115	carried	-0.2416261
-5.763145	carrier	-0.211099
-5.286024	carries	-0.6408444
-5.064175	carry	-0.2281585
-5.462115	carrying	-0.2110692
-3.57002	cars	-0.8679194
-4.918047	carson	-0.2996028
-5.462115	cartel	-0.4493015
-4.918047	cartels	-0.2421105
-4.401417	carter	-0.4102734
-5.763145	cartilage	-0.211099
-5.462115	carve	-0.2406114
-5.763145	cary	-0.2427897
-4.100387	case	-0.5806431
-4.484391	cases	-0.7892962
-5.462115	casey	-0.2313011
-4.763145	cash	-0.7001929
-5.763145	casino	-0.2343944
-4.808902	cast	-0.5138689
-5.763145	casted	-0.2317702
-4.984993	casting	-0.3347124
-4.808902	catastrophe	-0.4636422
-5.064175	catastrophes	-0.3870715
-4.984993	catastrophic	-0.4956338
-4.365205	catch	-0.8486365
-5.462115	catches	-0.2408387
-5.462115	catching	-0.2408997
-5.763145	categories	-0.217142
-5.286024	category	-0.1942771
-5.763145	catering	-0.233548
-5.763145	caterpillar	-0.2396321
-4.617017	catholic	-0.3290991
-4.161085	catholics	-0.7826527
-4.315987	caught	-0.5365778
-4.763145	cause	-0.2753019
-4.194943	caused	-0.5390036
-4.918047	causing	-0.2680008
-5.763145	cautious	-0.211099
-5.763145	caveat	-0.211099
-5.763145	cavities	-0.2317363
-4.382934	cbs	-0.4159476
-5.462115	celebrate	-0.2412435
-5.161085	celebrated	-0.2293433
-4.984993	celebrating	-0.2563732
-4.984993	celebration	-0.3269048
-5.462115	celebrities	-0.2103157
-5.462115	celeste	-0.2110982
-5.286024	cell	-0.2110748
-5.763145	cella	-0.211099
-5.763145	cells	-0.2371472
-5.161085	censored	-0.6972672
-5.763145	censorship	-0.217142
-4.860055	center	-0.3211823
-5.064175	centerpiece	-0.8590102
-5.064175	centers	-0.2914338
-4.918047	central	-0.5548357
-4.507873	cents	-0.5846503
-5.763145	centuries	-0.211099
-5.763145	ceo	-0.2371472
-5.462115	ceos	-0.4807254
-5.763145	ceremony	-0.233548
-4.100387	certain	-0.3381199
-4.587054	certainly	-0.2098911
-5.064175	chad	-0.405457
-5.763145	chain	-0.211099
-4.231666	chair	-0.628686
-4.271783	chairman	-0.7749156
-5.161085	chairs	-0.307391
-5.462115	chairwoman	-0.2271739
-5.462115	chaldean	-0.242771
-5.763145	challenge	-0.2354176
-5.462115	challenged	-0.2344578
-5.763145	champ	-0.211099
-5.763145	champagne	-0.2367029
-4.382934	champion	-0.6496733
-4.860055	champions	-0.4100627
-4.808902	championship	-0.3041648
-4.918047	championships	-0.5232359
-3.85466	chance	-1.059586
-5.763145	chancellors	-0.217142
-4.984993	chances	-0.4540969
-3.924296	change	-0.5239567
-3.999717	changed	-0.5934137
-4.286024	changes	-1.027033
-5.161085	changing	-0.2018623
-5.462115	chants	-0.4764141
-4.231666	chaos	-1.707279
-5.462115	character	-0.4553445
-5.286024	characters	-0.2353063
-3.754545	charge	-1.170194
-4.507873	charged	-0.4513268
-5.763145	chargers	-0.211099
-4.860055	charges	-0.6120368
-4.721752	charging	-0.4493337
-5.763145	charities	-0.211099
-4.918047	charity	-0.5542006
-5.763145	charleroi	-0.217142
-5.286024	charlie	-0.6421967
-5.286024	charlotte	-0.3269882
-3.70624	chart	-0.7612409
-5.763145	charter	-0.217142
-4.984993	charts	-0.5746445
-5.286024	chase	-0.2107725
-5.763145	chat	-0.211099
-5.763145	chattah	-0.211099
-5.161085	cheaper	-0.1720995
-4.244631	cheat	-0.7489831
-4.984993	cheated	-0.4347913
-5.462115	cheaters	-0.2045471
-4.507873	cheating	-0.6397992
-5.161085	cheats	-0.4699468
-4.257995	check	-0.5660871
-5.763145	checkbook	-0.233548
-4.984993	checked	-0.3457487
-5.161085	checker	-0.3436296
-5.462115	checkers	-0.4493015
-5.064175	checking	-0.2015592
-5.161085	checks	-0.3121003
-5.462115	checkup	-0.2158723
-5.763145	checkups	-0.2426826
-5.462115	cheek	-0.1991965
-4.721752	cheekbones	-0.5403484
-5.462115	cheers	-0.235714
-5.462115	chemicals	-0.4798301
-4.420722	cheney	-0.4457525
-5.763145	cheokas	-0.211099
-5.064175	cherish	-0.8624925
-4.721752	cherished	-0.6068907
-5.763145	chess	-0.2317363
-5.763145	chest	-0.2317363
-5.763145	chevrolets	-0.2408862
-4.683964	chicago	-0.3577217
-5.763145	chicken	-0.2427807
-5.763145	chief	-0.2371472
-5.763145	chiefs	-0.211099
-5.462115	chien	-0.2127265
-4.014957	child	-0.8088189
-5.286024	childhood	-0.242738
-3.540428	children	-0.8379592
-5.763145	chiming	-0.2425851
-5.763145	chimneys	-0.2386294
-3.293323	china	-0.8125182
-5.161085	chinese	-0.2168693
-5.763145	chipped	-0.2424952
-5.763145	chisel	-0.217142
-3.808902	choice	-1.078481
-5.763145	choke	-0.211099
-5.286024	choked	-0.1975623
-5.763145	choking	-0.2413758
-5.161085	choose	-0.232089
-5.763145	chop	-0.2409328
-5.462115	chopper	-0.1991965
-5.763145	chops	-0.2414359
-5.286024	chopsticks	-0.6105075
-5.161085	chose	-0.4708317
-5.286024	chosen	-0.1833908
-4.808902	chris	-0.4865045
-5.161085	christian	-0.2110531
-5.286024	christianity	-0.3489486
-4.420722	christians	-0.3476454
-5.064175	christie	-0.3794666
-5.462115	christmas	-0.2416726
-5.763145	christopher	-0.211099
-5.763145	chronic	-0.2427575
-5.064175	chuck	-0.2637697
-4.860055	chunk	-0.4733114
-4.683964	church	-0.437389
-5.763145	churches	-0.211099
-4.918047	churchill	-0.3868293
-5.064175	cindy	-0.2491795
-5.286024	circle	-0.1818236
-4.763145	circles	-0.4312981
-5.763145	circling	-0.2317702
-5.763145	circumstance	-0.217142
-4.984993	circumstances	-0.3346691
-3.666235	cities	-0.9119572
-4.109932	citizen	-1.259611
-3.828646	citizens	-0.8578222
-4.918047	citizenship	-0.3771202
-3.924296	city	-0.7201107
-4.984993	civil	-0.6126848
-5.064175	civilization	-0.5110519
-4.808902	claimed	-0.633428
-5.763145	clamps	-0.2386294
-5.763145	clap	-0.2422462
-4.532696	class	-0.7698509
-5.763145	classic	-0.2396321
-5.763145	classics	-0.211099
-5.462115	claws	-0.4553445
-4.064175	clean	-0.6934358
-5.462115	cleaner	-0.4553445
-4.860055	cleanest	-0.5639331
-5.462115	cleaning	-0.2342722
-5.064175	clear	-0.1524378
-5.161085	clearly	-0.4748119
-5.064175	clemente	-0.1684062
-5.763145	client	-0.211099
-5.462115	cliff	-0.1834458
-4.860055	climate	-0.4694689
-4.763145	climb	-0.9110852
-5.462115	climbed	-0.2422507
-5.763145	climbing	-0.211099
-5.763145	cline	-0.2317363
-5.462115	clinics	-0.2377858
-5.763145	clint	-0.2427882
-4.808902	clinton	-0.408024
-4.382934	clip	-0.7470801
-4.683964	clips	-0.545994
-5.763145	cloaked	-0.211099
-4.315987	clock	-0.9288586
-3.62013	close	-1.058894
-4.440926	closed	-0.7668353
-5.462115	closely	-0.4493015
-5.161085	closer	-0.1969782
-4.507873	closing	-0.4028894
-5.763145	closings	-0.2409509
-5.462115	clothing	-0.4553445
-5.763145	cloud	-0.2332271
-5.462115	clouds	-0.2054062
-5.462115	clowns	-0.2106813
-4.382934	club	-1.176105
-4.918047	clubs	-0.4708799
-4.683964	clue	-1.225676
-5.763145	clutched	-0.2421952
-5.763145	clyde	-0.217142
-4.587054	cnn	-0.2984022
-4.860055	coach	-0.3658859
-5.462115	coachella	-0.2110958
-4.808902	coal	-0.533757
-4.918047	coalition	-0.5009997
-5.286024	coast	-0.6165504
-5.763145	code	-0.2386294
-4.721752	cognitive	-0.5180318
-4.559025	cognitively	-0.6918614
-5.763145	cohesion	-0.217142
-5.064175	coincidence	-0.5016169
-4.382934	cold	-0.4463717
-5.763145	coliseum	-0.217142
-5.462115	collapse	-0.2054421
-5.763145	collapsed	-0.2396321
-5.286024	collapses	-0.3427389
-5.763145	collapsing	-0.211099
-5.763145	collect	-0.2423152
-4.984993	collecting	-0.6423009
-4.507873	college	-0.4860922
-4.860055	colleges	-0.4305178
-5.286024	collegiate	-0.3606749
-5.064175	collins	-0.3651193
-5.286024	colombia	-0.3269882
-5.763145	colonel	-0.2386294
-4.721752	color	-1.053533
-3.828646	colorado	-0.7389279
-5.763145	colored	-0.2427845
-5.161085	colors	-0.3021457
-5.462115	colossal	-0.4809915
-5.763145	columbus	-0.217142
-4.860055	columns	-0.4129913
-5.286024	com	-0.3852015
-5.763145	comb	-0.2354176
-5.763145	combat	-0.211099
-4.683964	combination	-0.7741644
-5.763145	combinations	-0.2371472
-2.884623	come	-1.445738
-5.064175	comeback	-0.5272909
-5.763145	comebacks	-0.2409509
-5.286024	comedian	-0.2300236
-5.763145	comedians	-0.2386294
-3.76751	comes	-0.8393133
-5.763145	comfort	-0.2371472
-5.064175	comfortable	-0.2882879
-5.763145	comforter	-0.2371472
-3.209262	coming	-1.265434
-5.763145	command	-0.211099
-5.462115	comment	-0.2045471
-5.462115	commentator	-0.2091198
-5.161085	comments	-0.6969003
-5.462115	commerce	-0.1834458
-4.984993	commercial	-0.2265444
-5.763145	commercials	-0.2317363
-5.286024	commission	-0.3535205
-4.763145	commissioner	-0.4264565
-5.763145	commissioners	-0.217142
-5.161085	commit	-0.3384989
-4.617017	committed	-0.2955027
-5.064175	committee	-0.3954933
-5.286024	committees	-0.1728333
-5.763145	committeewoman	-0.242789
-4.129676	common	-1.866375
-5.763145	commonly	-0.2427613
-4.219077	commonwealth	-0.5892268
-5.763145	communicating	-0.211099
-4.331781	communication	-0.700816
-5.462115	communications	-0.4493015
-4.860055	communism	-0.4479929
-4.559025	communist	-0.6531471
-4.984993	communists	-0.642265
-4.139895	communities	-0.7413991
-4.231666	community	-0.4903251
-3.556319	companies	-0.7249669
-4.091047	company	-0.7372174
-5.161085	compare	-0.490759
-4.401417	compared	-1.587743
-5.462115	compares	-0.23309
-4.721752	comparing	-0.9425542
-4.559025	comparison	-0.9621137
-5.161085	compassion	-0.672067
-4.763145	compete	-0.5350766
-5.161085	competent	-0.3113961
-4.420722	competing	-1.077098
-4.984993	competition	-0.3339375
-4.763145	competitive	-0.4531206
-5.763145	competitor	-0.211099
-5.763145	competitors	-0.2414359
-5.286024	complain	-0.3839105
-5.064175	complaining	-0.3612648
-5.763145	complaints	-0.241786
-4.484391	complete	-0.8546544
-5.462115	completed	-0.2093165
-5.763145	completely	-0.242786
-4.984993	complex	-0.3617899
-4.271783	complexes	-0.9289595
-4.984993	complicated	-0.4451995
-4.918047	compliment	-0.3697487
-5.763145	component	-0.2371472
-5.763145	comprehend	-0.211099
-4.617017	computer	-0.3740371
-5.462115	computerization	-0.4493015
-5.462115	computerized	-0.2109386
-4.365205	computers	-0.5113031
-4.984993	comrade	-0.272514
-4.984993	con	-0.6475199
-5.161085	conceded	-0.4596342
-5.462115	conceivable	-0.2106289
-5.763145	conceive	-0.211099
-5.064175	conceived	-0.8590102
-5.064175	concept	-0.2541576
-4.860055	concerned	-0.4513929
-5.763145	concert	-0.217142
-5.763145	concluded	-0.2418777
-4.331781	conclusion	-1.303006
-4.587054	concrete	-0.4015056
-5.763145	condemned	-0.2420241
-5.763145	condition	-0.2367029
-5.763145	conditioned	-0.211099
-5.462115	conditioners	-0.4493015
-4.763145	conditioning	-0.477989
-5.763145	conditions	-0.217142
-5.763145	condolences	-0.233548
-5.763145	coney	-0.242789
-4.440926	conference	-0.6341616
-5.286024	conferences	-0.3705454
-4.984993	confidence	-0.3222824
-5.763145	confident	-0.2422852
-5.462115	confirm	-0.2365319
-4.183361	confiscate	-1.455914
-5.286024	confiscation	-0.3485679
-4.860055	conflict	-0.8845043
-5.763145	conflicts	-0.2317363
-5.286024	confluence	-0.201579
-5.462115	confront	-0.479552
-5.462115	confused	-0.1992329
-3.950232	congo	-0.9575536
-5.462115	congratulate	-0.2323385
-5.763145	congratulated	-0.2421952
-4.315987	congratulations	-0.8742168
-3.956965	congress	-0.6482248
-4.721752	congressional	-0.9505496
-4.064175	congressman	-0.5738726
-4.649201	congressmen	-0.3365043
-5.286024	congresspeople	-0.1826109
-5.286024	congressperson	-0.2360444
-4.984993	congresswoman	-0.4779638
-5.763145	conjunction	-0.2412991
-5.462115	connecticut	-0.4809773
-5.462115	conquer	-0.2106167
-3.838866	conquered	-1.62327
-4.721752	conquering	-0.3592013
-5.763145	conscious	-0.2426826
-5.161085	consent	-0.1984735
-5.763145	consequence	-0.2371472
-5.462115	consequences	-0.211153
-4.918047	consequential	-0.3893325
-4.401417	conservative	-0.4988455
-5.763145	conservatives	-0.2386294
-5.763145	conserve	-0.2356866
-4.763145	consider	-0.4017598
-4.440926	considered	-0.4187436
-5.763145	considering	-0.2354542
-5.763145	considers	-0.2317702
-5.161085	consistent	-0.207304
-4.860055	conspiracy	-0.4898436
-5.763145	constant	-0.211099
-5.763145	constantly	-0.217142
-5.763145	constituency	-0.2371472
-5.763145	constituents	-0.233548
-5.161085	constitution	-0.3015654
-5.161085	constitutional	-0.3139779
-4.683964	construction	-0.3190477
-5.462115	consultant	-0.2109031
-5.064175	consultants	-0.2785743
-5.763145	consulting	-0.2418469
-5.763145	contagious	-0.2427852
-5.763145	container	-0.217142
-5.763145	contender	-0.2396321
-5.763145	contenders	-0.217142
-5.286024	contest	-0.3526622
-5.763145	contestant	-0.2416336
-5.462115	continent	-0.4553445
-5.462115	continents	-0.2313011
-4.860055	continue	-0.5019462
-5.763145	continued	-0.211099
-5.763145	continues	-0.217142
-5.462115	continuing	-0.2321028
-5.763145	continuously	-0.2329475
-4.808902	contract	-0.3075238
-5.064175	contractor	-0.5110519
-5.763145	contractors	-0.217142
-5.286024	contracts	-0.1750248
-5.763145	contraptions	-0.2367029
-5.064175	contrast	-0.8390051
-5.763145	contribute	-0.233548
-5.763145	contributed	-0.2409261
-5.462115	contribution	-0.2335388
-5.462115	contributions	-0.4717505
-5.462115	contributor	-0.1834458
-4.587054	control	-0.6417421
-5.286024	controlled	-0.3538169
-5.763145	controls	-0.2401186
-5.286024	controversial	-0.3545987
-5.763145	convene	-0.2356866
-5.763145	convenience	-0.2427845
-5.763145	convenient	-0.217142
-4.984993	convention	-0.5828542
-4.984993	conversation	-0.4287298
-5.462115	conversations	-0.1834458
-5.763145	converted	-0.2427703
-4.420722	convicted	-0.6021068
-5.462115	convince	-0.2422139
-4.860055	convinced	-0.5452647
-4.860055	cook	-0.2851253
-5.161085	cookie	-0.4216484
-5.286024	cookies	-0.3269882
-4.271783	cool	-0.6922674
-5.763145	cooler	-0.217142
-4.984993	coolest	-0.365341
-5.462115	coolidge	-0.4553445
-5.763145	cooling	-0.211099
-4.860055	cooper	-0.2046446
-5.763145	cooperation	-0.2419235
-5.161085	cop	-0.2988836
-4.763145	copied	-0.525269
-5.763145	copies	-0.2343944
-4.808902	cops	-0.3289287
-5.462115	copycat	-0.4493015
-5.763145	cord	-0.2386294
-4.532696	corey	-0.6805813
-4.808902	corner	-0.3188779
-5.462115	cornyn	-0.4753497
-5.161085	corporal	-0.3457552
-4.860055	corporate	-0.9539817
-5.763145	corporation	-0.217142
-5.462115	corporations	-0.4493015
-4.984993	corps	-0.3427355
-4.286024	correct	-0.6422594
-4.918047	corrected	-0.425034
-5.064175	correction	-0.2587309
-5.763145	corrections	-0.2411811
-5.462115	correctly	-0.4553445
-3.87105	corrupt	-0.6725752
-5.763145	corruption	-0.217142
-5.763145	corruptness	-0.217142
-3.721752	cost	-0.6498157
-5.286024	costing	-0.3742731
-5.763145	costly	-0.217142
-4.271783	costs	-0.441171
-4.683964	couch	-0.7748916
-3.115762	could	-0.8411071
-3.545661	couldn	-2.202382
-5.064175	council	-0.4106871
-5.763145	councilwoman	-0.217142
-4.683964	count	-0.2246935
-5.462115	counted	-0.4493015
-4.683964	counter	-0.4109198
-5.462115	counties	-0.1834458
-5.763145	counting	-0.2427718
-4.763145	countless	-1.236647
-3.564488	countries	-0.7164041
-2.468679	country	-1.152572
-5.763145	countryside	-0.217142
-5.763145	counts	-0.211099
-5.064175	county	-0.2531148
-4.440926	coup	-0.7634113
-3.642571	couple	-1.44372
-4.918047	courage	-0.2355768
-5.161085	courageous	-0.3020943
-4.055575	course	-0.9357517
-5.462115	courses	-0.1991965
-4.382934	court	-0.3188799
-5.763145	courts	-0.211099
-5.763145	cousins	-0.217142
-4.808902	cover	-0.4286797
-4.860055	covered	-0.3562341
-5.763145	covering	-0.217142
-5.462115	covers	-0.2356683
-4.420722	covid	-0.621258
-5.763145	coward	-0.211099
-5.763145	cowards	-0.211099
-5.286024	cows	-0.1816002
-5.763145	cox	-0.2371472
-5.763145	cozy	-0.2386294
-4.918047	crack	-0.5239936
-5.462115	cracked	-0.2098875
-5.763145	cracker	-0.211099
-5.763145	crackers	-0.211099
-5.763145	cracking	-0.211099
-5.763145	cracks	-0.2426361
-5.763145	crafted	-0.2367029
-5.286024	craftsmen	-0.3562689
-5.763145	cram	-0.2354176
-5.462115	crane	-0.1991965
-5.763145	crank	-0.211099
-4.649201	crap	-0.3876093
-5.286024	crappy	-0.2170665
-4.382934	crash	-0.9237978
-5.161085	crashed	-0.2102317
-5.064175	crashing	-0.3879277
-5.462115	cratering	-0.2372011
-5.763145	crawls	-0.2422522
-5.286024	crazier	-0.2104674
-4.860055	craziest	-0.500584
-5.161085	craziness	-0.4649847
-3.40521	crazy	-0.9460759
-5.763145	creamed	-0.2386294
-4.587054	create	-0.4567696
-3.899822	created	-0.6485559
-5.763145	creates	-0.2356866
-5.286024	creating	-0.2352781
-5.286024	creation	-0.3821219
-4.348172	creator	-1.626126
-5.161085	credentials	-0.1689882
-4.918047	credibility	-0.5233555
-4.072949	credit	-1.031653
-5.462115	credits	-0.2316687
-4.721752	creed	-1.162011
-5.462115	crew	-0.2368632
-5.064175	cried	-0.3843842
-5.763145	cries	-0.211099
-3.503073	crime	-0.8452193
-4.348172	crimes	-0.6702219
-3.780874	criminal	-0.8109884
-5.462115	criminally	-0.2427882
-3.440926	criminals	-1.080225
-5.161085	crippled	-0.4913878
-5.763145	crippling	-0.242777
-4.984993	crisis	-0.3594858
-5.286024	crisp	-0.3269882
-4.206842	critical	-1.304389
-5.763145	critically	-0.242786
-5.763145	criticize	-0.211099
-5.763145	cronies	-0.2394819
-5.763145	crook	-0.211099
-3.710066	crooked	-0.9692243
-5.286024	crooks	-0.1707492
-5.763145	cross	-0.241786
-4.984993	crossed	-0.38335
-5.763145	crosses	-0.2367029
-5.763145	crossing	-0.2317702
-3.956965	crowd	-0.6263355
-5.763145	crowded	-0.211099
-4.532696	crowds	-0.661295
-5.763145	cruces	-0.217142
-5.763145	cruel	-0.217142
-5.763145	cruelly	-0.2427703
-5.763145	cruise	-0.217142
-5.763145	crumbled	-0.211099
-5.763145	crumbles	-0.211099
-5.286024	crummy	-0.2426129
-4.17208	crush	-1.163615
-5.462115	crushed	-0.2110668
-5.161085	crushing	-0.4799495
-5.763145	cruz	-0.2409509
-5.763145	cry	-0.2422282
-4.315987	crying	-0.5197095
-5.763145	crystal	-0.2427328
-5.763145	cucumber	-0.211099
-5.462115	cueto	-0.1834458
-5.763145	culture	-0.211099
-5.763145	cumulatively	-0.217142
-5.763145	cunning	-0.2409328
-5.763145	cup	-0.2371472
-5.763145	cups	-0.2416276
-5.462115	cure	-0.2169711
-5.763145	cured	-0.2329475
-5.064175	curiosity	-0.524864
-5.064175	current	-0.2426264
-5.462115	currently	-0.2382192
-5.763145	cursing	-0.2413758
-4.984993	custody	-0.3505722
-5.462115	customer	-0.2050255
-5.763145	customers	-0.2367029
-3.459949	cut	-0.8134326
-4.860055	cute	-0.4618255
-4.109932	cuts	-0.82779
-5.763145	cutter	-0.217142
-4.683964	cutting	-0.3111757
-4.129676	czar	-0.8717216
-2.998969	d	-0.9139287
-4.984993	da	-0.2212823
-4.382934	dad	-1.081155
-5.763145	daddy	-0.217142
-5.161085	dads	-0.6920722
-5.462115	daily	-0.2414344
-5.763145	dais	-0.211099
-5.286024	dakota	-0.354556
-4.484391	damage	-0.4684412
-5.763145	damages	-0.2425986
-5.161085	dame	-0.2863685
-3.828646	damn	-0.3794633
-5.763145	dams	-0.2317363
-4.064175	dan	-0.747493
-4.763145	dana	-1.217081
-5.763145	dance	-0.242738
-4.918047	danger	-0.2838618
-3.930636	dangerous	-0.6676695
-5.763145	dangerously	-0.211099
-4.587054	danica	-0.5120134
-5.763145	danielle	-0.2427897
-5.462115	dare	-0.2309825
-5.763145	darin	-0.2427748
-4.587054	dark	-1.117714
-5.763145	darkened	-0.211099
-4.231666	darling	-1.711302
-4.984993	darrell	-0.3233628
-5.763145	darren	-0.2427897
-5.763145	das	-0.2367029
-5.286024	data	-0.3854501
-5.462115	date	-0.2005017
-4.219077	daughter	-0.788715
-4.763145	daughters	-0.4638405
-5.064175	dave	-0.1834166
-4.047142	david	-0.8463742
-5.462115	davidson	-0.2367713
-5.763145	davis	-0.211099
-5.286024	dawn	-0.2005009
-2.984994	day	-1.136291
-5.763145	daylight	-0.217142
-3.288929	days	-1.01019
-5.462115	daytona	-0.2109386
-4.440926	dc	-0.9997163
-3.893913	de	-1.600275
-3.876654	dead	-0.8313441
-4.559025	deadliest	-1.219395
-5.462115	deadline	-0.2325188
-4.348172	deadly	-0.949902
-3.652555	deal	-0.8336695
-5.763145	dealer	-0.217142
-4.150361	dealers	-1.184726
-4.507873	dealing	-1.496436
-4.271783	deals	-0.4559897
-5.064175	dealt	-0.8631622
-5.462115	deanna	-0.4493015
-5.161085	dearborn	-0.2863985
-4.219077	dearly	-1.404359
-3.790017	death	-0.7148265
-5.462115	deathly	-0.240926
-4.038869	debate	-0.8869382
-5.064175	debated	-0.2304347
-5.763145	debater	-0.217142
-5.064175	debates	-0.4089179
-4.918047	debating	-0.2803342
-4.348172	debt	-0.8377566
-4.440926	decades	-0.5781409
-5.763145	decapitate	-0.2356866
-5.763145	decapitating	-0.2356866
-5.064175	decay	-0.5110519
-5.763145	deceit	-0.217142
-5.763145	december	-0.2421786
-4.984993	decent	-0.2963246
-5.763145	deceptive	-0.211099
-5.161085	decide	-0.215199
-4.382934	decided	-0.8435874
-5.763145	decides	-0.233548
-4.984993	deciding	-0.6383856
-5.763145	decimate	-0.241777
-4.532696	decimated	-0.4198987
-5.763145	decimating	-0.2427635
-4.532696	decision	-0.406244
-5.286024	decisions	-0.2336773
-5.763145	decisively	-0.2367029
-4.918047	declare	-0.5218458
-4.286024	decline	-0.9078665
-5.763145	dedicated	-0.2422597
-5.763145	dedication	-0.2362711
-4.984993	deduct	-0.3666319
-4.860055	deductibility	-0.4369918
-4.462115	deductible	-0.6738539
-5.763145	deducting	-0.2427343
-4.587054	deduction	-0.4142288
-5.763145	deductions	-0.2414359
-4.860055	deep	-0.1764762
-5.763145	deeply	-0.242771
-4.918047	deere	-0.3810516
-4.918047	deface	-0.5112856
-3.804103	defeat	-1.053128
-4.271783	defeated	-0.7431211
-5.763145	defeating	-0.2356866
-5.763145	defective	-0.211099
-3.725718	defend	-1.322258
-4.129676	defending	-1.241718
-4.206842	defense	-1.256122
-5.763145	defensible	-0.211099
-5.462115	defensive	-0.2329467
-5.763145	defiant	-0.211099
-5.462115	deficient	-0.216633
-5.161085	deficit	-0.3108695
-4.918047	definitely	-0.2367629
-5.161085	definition	-0.3075726
-5.286024	deflate	-0.2251662
-5.763145	deflation	-0.2317363
-5.462115	defrauded	-0.2231562
-3.876654	defund	-1.333702
-5.763145	defunded	-0.2427028
-5.286024	defunder	-0.3707164
-5.161085	defunding	-0.3346502
-4.984993	degree	-0.2434796
-4.860055	degrees	-0.4260334
-5.462115	del	-0.4809915
-5.462115	delay	-0.2339787
-5.161085	delayed	-0.2234861
-5.763145	delegation	-0.2371472
-5.763145	delete	-0.2317702
-5.763145	deleted	-0.2317702
-5.763145	deletion	-0.217142
-5.763145	deliberately	-0.2427897
-5.763145	delighted	-0.233548
-4.918047	delinquent	-0.3862121
-4.860055	deliver	-0.2848728
-4.617017	delivered	-0.5196756
-5.462115	delivering	-0.2351393
-5.286024	delta	-0.6421967
-4.683964	demand	-0.3883629
-5.763145	demanded	-0.2367029
-4.860055	demanding	-0.8774747
-5.763145	demean	-0.2423422
-5.286024	demeaned	-0.3774798
-5.286024	demeaning	-0.3446912
-4.064175	democracy	-1.172477
-3.999717	democrat	-0.5288169
-5.064175	democratic	-0.2864484
-5.763145	democratically	-0.217142
-3.970753	democrats	-0.4976262
-5.763145	demolish	-0.2425619
-5.286024	demolished	-0.3538169
-5.763145	demolition	-0.242789
-5.763145	demonic	-0.242738
-5.462115	demonization	-0.4553445
-5.161085	demonized	-0.4943751
-5.763145	den	-0.211099
-5.462115	denied	-0.229225
-5.763145	denies	-0.2354176
-5.763145	dennis	-0.242789
-4.984993	denver	-0.3269392
-5.462115	deny	-0.2254041
-4.440926	department	-0.5182658
-5.286024	departments	-0.3427389
-5.763145	dependent	-0.2422852
-5.161085	depending	-0.4700794
-5.286024	depends	-0.3542011
-5.462115	deplatformed	-0.4805447
-4.559025	deplorable	-0.3239327
-4.918047	deplorables	-0.5258434
-4.918047	deport	-0.3484363
-4.244631	deportation	-1.110754
-5.462115	deportations	-0.1991965
-5.161085	deported	-0.1823733
-5.763145	deporting	-0.2424022
-5.286024	deposit	-0.640758
-5.462115	deposited	-0.2389871
-5.462115	depositing	-0.4804622
-5.763145	depreciate	-0.2317702
-5.286024	depressed	-0.2053343
-5.161085	depressing	-0.1826368
-3.943601	depression	-0.9086953
-5.763145	deranged	-0.2427732
-4.649201	derangement	-1.325033
-5.462115	derek	-0.2110982
-5.763145	desantis	-0.217142
-5.763145	describable	-0.211099
-5.763145	describe	-0.2354176
-5.763145	described	-0.2422462
-5.763145	description	-0.211099
-5.462115	descriptive	-0.4553445
-3.992293	deserve	-0.9024572
-5.286024	deserved	-0.6348261
-5.286024	deserves	-0.3467053
-5.161085	designed	-0.2025978
-5.462115	desk	-0.4553445
-5.161085	desperate	-0.4216484
-5.286024	desperately	-0.3861268
-4.484391	despite	-0.6321859
-5.161085	destiny	-0.2794304
-3.771919	destroy	-0.813972
-3.632811	destroyed	-0.7827122
-5.286024	destroyer	-0.1721427
-5.763145	destroyers	-0.217142
-4.072949	destroying	-0.8467945
-5.763145	destroys	-0.2425124
-5.763145	destructed	-0.217142
-4.683964	destruction	-0.4940361
-4.984993	destructive	-0.3881489
-5.462115	detail	-0.1834458
-5.462115	detailed	-0.2427785
-4.860055	details	-0.464809
-5.763145	detained	-0.211099
-5.763145	detectives	-0.242783
-4.219077	detention	-0.9292623
-5.462115	determine	-0.2137907
-5.161085	determined	-0.3256602
-3.57002	detroit	-0.7673514
-5.763145	devastate	-0.2329475
-4.257995	devastated	-0.8732587
-4.649201	devastating	-0.2946227
-4.484391	devastation	-0.3506821
-5.462115	develop	-0.2307306
-4.984993	developed	-0.2556102
-5.161085	developer	-0.32954
-5.064175	developers	-0.2868746
-4.649201	developing	-0.6213152
-4.984993	development	-0.2343493
-5.763145	devices	-0.2362711
-5.161085	devil	-0.672067
-4.918047	devin	-0.4145359
-5.763145	devised	-0.2420241
-5.462115	devote	-0.235147
-5.763145	devoted	-0.2409261
-5.763145	dew	-0.211099
-5.763145	diameter	-0.211099
-5.763145	diamond	-0.217142
-5.763145	dick	-0.242774
-5.064175	dictator	-0.2706064
-4.617017	dictionary	-0.3055159
-2.797943	did	-0.913662
-2.910055	didn	-2.835973
-4.300747	die	-0.6755085
-4.382934	died	-0.8076437
-5.763145	diego	-0.24278
-5.763145	dies	-0.211099
-5.286024	diesel	-0.3606797
-5.763145	diets	-0.2422709
-4.219077	difference	-0.7805137
-5.462115	differences	-0.1834458
-3.491303	different	-0.5886161
-4.047142	differently	-1.069824
-4.617017	difficult	-0.2871105
-5.462115	difficulty	-0.1834458
-4.683964	dignity	-0.9502338
-5.763145	dillon	-0.211099
-5.763145	dime	-0.211099
-5.462115	dina	-0.4493015
-4.271783	ding	-1.383636
-5.763145	dining	-0.2427425
-4.649201	dinner	-0.450293
-5.161085	direct	-0.6977065
-5.763145	directing	-0.2424022
-5.064175	direction	-0.1623835
-4.587054	directly	-0.8800973
-5.763145	director	-0.2420871
-4.918047	dirty	-0.3846975
-5.462115	disadvantage	-0.209577
-4.860055	disagree	-0.5841371
-5.462115	disappear	-0.4493015
-5.763145	disappeared	-0.2422522
-5.763145	disappoint	-0.2343944
-5.286024	disappointed	-0.2248899
-5.763145	disappointing	-0.2422199
-5.763145	disapproval	-0.2426983
-5.462115	disassociate	-0.2419107
-3.823626	disaster	-0.8425282
-5.462115	disasters	-0.2326715
-5.462115	disastrous	-0.2109773
-5.462115	disavowed	-0.2093165
-5.763145	discover	-0.2413653
-5.763145	discovery	-0.233548
-5.763145	discrimination	-0.211099
-5.763145	discuss	-0.211099
-5.763145	discussing	-0.2411389
-5.763145	discussions	-0.211099
-4.918047	disease	-0.4124451
-5.763145	diseases	-0.2421659
-4.401417	disgrace	-0.8473058
-5.763145	disgraced	-0.2421952
-5.161085	disgraceful	-0.666024
-5.763145	disgusted	-0.2317363
-4.683964	disgusting	-0.3774906
-5.763145	disgustingly	-0.2427897
-4.507873	dishonest	-0.6266425
-5.763145	disinformation	-0.211099
-5.763145	disintegrate	-0.2416659
-4.300747	dismantle	-1.476733
-5.763145	dismantled	-0.2406295
-5.462115	disparaging	-0.4493015
-5.462115	displaced	-0.48099
-5.763145	display	-0.242738
-5.462115	dispose	-0.4753497
-5.763145	disproportionately	-0.211099
-5.286024	dispute	-0.3467053
-5.462115	disputes	-0.2344578
-5.763145	disqualification	-0.211099
-4.918047	disqualified	-0.5024229
-5.462115	disqualifier	-0.4493015
-4.860055	disqualifies	-0.5843989
-5.462115	disqualify	-0.4803376
-4.462115	disqualifying	-1.032809
-5.763145	disrespected	-0.2411074
-5.286024	disrespectful	-0.1728333
-5.763145	dissipated	-0.211099
-5.462115	distance	-0.2045471
-5.462115	distances	-0.210117
-5.763145	distress	-0.211099
-5.763145	distribution	-0.2371472
-5.064175	district	-0.2632626
-5.763145	disturb	-0.2413495
-5.763145	disturbed	-0.2386294
-5.286024	disturbing	-0.3523163
-5.462115	diverse	-0.4809878
-5.462115	divide	-0.4699389
-5.161085	divided	-0.3408854
-4.617017	divider	-0.7996693
-5.462115	dividers	-0.2154345
-5.286024	division	-0.1707492
-5.763145	divisions	-0.2371472
-5.462115	divisive	-0.4804344
-5.286024	dixon	-0.3269882
-2.358996	do	-1.211541
-5.763145	doable	-0.211099
-5.763145	doc	-0.217142
-4.139895	doctor	-0.760025
-4.315987	doctors	-0.3807897
-5.064175	document	-0.2566088
-5.462115	documents	-0.2110619
-3.434765	does	-0.7941754
-3.26899	doesn	-2.477818
-5.462115	dog	-0.4493015
-5.763145	doggies	-0.2367029
-4.808902	dogs	-0.3947086
-2.971454	doing	-0.9271293
-5.462115	doj	-0.2011487
-5.064175	dolan	-0.2508791
-4.440926	dollar	-0.5621966
-3.838866	dollars	-0.6908761
-5.763145	dome	-0.2422117
-5.763145	domed	-0.2427897
-5.161085	domes	-0.3119189
-4.683964	domestic	-0.9883344
-5.763145	dominance	-0.217142
-5.064175	dominant	-0.4037473
-5.763145	dominate	-0.2317702
-5.763145	dominated	-0.2420241
-2.452239	don	-2.573794
-5.763145	donahue	-0.2426901
-3.882331	donald	-1.677872
-4.918047	donalds	-0.3734488
-3.081904	done	-0.9350029
-5.462115	donuts	-0.2154345
-4.763145	door	-0.2910046
-5.763145	doors	-0.211099
-5.064175	dope	-0.5371152
-5.286024	dopes	-0.3530515
-5.763145	dopey	-0.2422319
-5.161085	doral	-0.27372
-5.286024	dose	-0.6365557
-4.462115	double	-0.2460154
-4.918047	doubled	-0.3164403
-5.462115	doubling	-0.4798669
-4.860055	doubt	-0.4313679
-4.507873	doug	-0.4688389
-5.462115	douglas	-0.242735
-2.92936	down	-1.063561
-4.918047	downward	-0.2976795
-5.763145	dozen	-0.2427208
-4.617017	dr	-1.1444
-5.462115	draconian	-0.2110893
-4.918047	draft	-0.5037656
-4.860055	drafted	-0.3549399
-5.462115	drafting	-0.2333612
-5.763145	drag	-0.2413495
-5.462115	drain	-0.2110772
-4.918047	draw	-0.1573173
-5.763145	draws	-0.2401186
-3.639293	dream	-0.976528
-5.462115	dreaming	-0.2417357
-4.721752	dreams	-0.7455083
-5.763145	dreamt	-0.2427658
-4.918047	dressed	-0.3250309
-5.462115	drew	-0.2110877
-5.763145	dribble	-0.2425222
-3.601777	drill	-1.339059
-5.763145	driller	-0.217142
-4.587054	drilling	-0.5410529
-5.763145	drink	-0.2396321
-4.300747	drive	-0.2931523
-5.763145	driven	-0.2406295
-4.860055	driver	-0.3431475
-4.984993	drivers	-0.2370826
-5.286024	drives	-0.2310356
-4.683964	driving	-0.2849471
-5.763145	drones	-0.2416644
-5.763145	drooling	-0.2416276
-4.231666	drop	-0.3181047
-4.401417	dropped	-0.6207363
-5.286024	dropping	-0.2391261
-5.763145	drops	-0.2427882
-5.286024	drought	-0.351243
-4.649201	drove	-0.295063
-5.161085	drowning	-0.4448238
-3.924296	drug	-0.8254864
-4.119692	drugs	-0.5944608
-5.763145	drugstore	-0.211099
-5.462115	drugstores	-0.2137907
-5.763145	dry	-0.211099
-5.462115	du	-0.4809915
-5.763145	duck	-0.217142
-5.161085	dude	-0.4438835
-5.161085	due	-0.4938991
-5.763145	duh	-0.211099
-5.763145	dukes	-0.211099
-5.462115	duluth	-0.4493015
-4.365205	dumb	-0.3899475
-5.286024	dumber	-0.383848
-5.161085	dumbest	-0.3446667
-5.462115	dummy	-0.4493015
-5.161085	dump	-0.3339702
-4.984993	dumped	-0.3920771
-4.382934	dumping	-0.7093068
-5.763145	dungeon	-0.2414359
-4.984993	dungeons	-0.4555998
-5.763145	duped	-0.2420241
-5.763145	duran	-0.217142
-4.219077	during	-0.8192755
-5.286024	duty	-0.2421921
-4.808902	dwight	-0.999991
-4.348172	dying	-0.6459198
-4.462115	each	-0.5088796
-4.860055	ear	-0.4401186
-4.808902	earlier	-0.4848396
-3.694959	early	-0.8616915
-5.763145	ears	-0.2409509
-4.231666	earth	-1.380767
-4.617017	easier	-0.3951463
-5.462115	easiest	-0.2427762
-4.331781	easily	-0.5398836
-3.876654	east	-1.007421
-3.893913	easy	-0.7875652
-5.462115	eat	-0.2054421
-5.286024	eating	-0.2304517
-3.794662	economic	-0.6609157
-5.286024	economically	-0.6165504
-4.918047	economics	-0.3874293
-3.430707	economy	-0.9163137
-5.763145	ecuador	-0.217142
-5.763145	ed	-0.2425334
-5.462115	edge	-0.4493015
-5.763145	edged	-0.2427897
-5.763145	edit	-0.2354176
-5.763145	editing	-0.211099
-5.763145	editorial	-0.2427837
-5.763145	educated	-0.2427545
-4.721752	education	-0.3815606
-5.763145	educational	-0.2422199
-5.161085	effect	-0.3070004
-5.286024	effective	-0.2169814
-5.462115	efficiency	-0.1834458
-5.161085	efficient	-0.2847944
-5.763145	efficiently	-0.211099
-5.064175	effort	-0.2765206
-5.286024	eggs	-0.3489486
-5.763145	ego	-0.217142
-4.300747	egregious	-1.034939
-4.331781	eight	-0.3920972
-5.286024	eighteen	-0.386186
-5.064175	eighth	-0.8590102
-4.763145	eighty	-1.03155
-5.763145	einstein	-0.211099
-4.683964	eisenhower	-0.9940714
-3.970753	either	-0.6994593
-5.286024	el	-0.6421967
-5.462115	elderly	-0.21701
-4.763145	elect	-0.4195893
-4.100387	elected	-0.8606037
-3.20805	election	-0.9591661
-4.194943	elections	-0.6509964
-5.763145	electorate	-0.217142
-3.828646	electric	-0.8884458
-5.763145	electrical	-0.2427613
-5.161085	electricity	-0.3105088
-5.763145	electrified	-0.2356866
-5.763145	electrify	-0.2356866
-5.763145	elegant	-0.2426661
-5.763145	elementary	-0.2427485
-5.462115	elements	-0.2050255
-5.763145	eleven	-0.2426414
-5.286024	eli	-0.3546398
-5.763145	eliminate	-0.2424022
-5.161085	eliminated	-0.3299342
-5.763145	elite	-0.2427897
-5.161085	elizabeth	-0.4775765
-5.763145	ellen	-0.217142
-3.395789	elon	-1.052051
-5.763145	elongated	-0.211099
-3.559025	else	-0.5998893
-5.462115	elsewhere	-0.4553445
-5.763145	elvira	-0.217142
-5.462115	elvis	-0.2410058
-5.286024	embarrass	-0.3764677
-4.559025	embarrassed	-0.4290633
-4.365205	embarrassing	-0.5981005
-4.984993	embarrassment	-0.3320782
-5.161085	embassy	-0.308759
-5.763145	emblazoned	-0.2386294
-5.763145	emblematic	-0.2371472
-5.763145	embodies	-0.2317702
-5.763145	embrace	-0.2427882
-5.462115	embraced	-0.2421209
-5.462115	embraces	-0.480975
-5.286024	emergency	-0.242744
-5.462115	emerging	-0.4493015
-5.763145	emerson	-0.217142
-4.918047	emmanuel	-0.4835748
-5.161085	emmer	-0.3130813
-5.462115	emotion	-0.4493015
-5.286024	emotional	-0.2089165
-5.161085	emphasis	-0.2848633
-5.763145	emphatic	-0.2427185
-5.763145	employ	-0.2406295
-5.763145	employment	-0.2425791
-5.763145	empowering	-0.2424022
-4.918047	emptied	-0.382818
-4.532696	empty	-0.3612011
-4.559025	emptying	-1.368108
-5.763145	enacted	-0.2317702
-5.763145	encrypted	-0.2317363
-3.194943	end	-1.205946
-4.194943	ended	-0.7964952
-4.860055	ending	-0.1901268
-5.286024	endless	-0.6421307
-4.440926	endorse	-0.5701098
-3.702447	endorsed	-1.206755
-3.725718	endorsement	-0.8564899
-4.649201	endorsements	-0.5793161
-5.763145	endorser	-0.211099
-5.763145	endorses	-0.2329475
-4.918047	endorsing	-0.2606696
-4.17208	ends	-0.9278614
-5.462115	endure	-0.2314219
-5.763145	endured	-0.2411074
-4.072949	enemies	-1.000546
-4.331781	enemy	-0.5656354
-5.763145	energetic	-0.217142
-5.763145	energized	-0.2356866
-3.395789	energy	-0.8656465
-3.924296	enforcement	-0.6804555
-5.763145	engagement	-0.211099
-5.462115	engine	-0.2104828
-5.763145	engineer	-0.211099
-5.763145	engineers	-0.217142
-4.587054	engines	-0.412449
-4.984993	english	-0.5535433
-4.763145	enjoy	-0.4425692
-5.462115	enjoyed	-0.2331253
-5.161085	enjoying	-0.3271589
-5.763145	enlarged	-0.2427868
-5.763145	enlisted	-0.233548
-5.763145	enormous	-0.211099
-3.833726	enough	-0.827689
-5.286024	enrich	-0.6420214
-5.462115	enrolled	-0.4803151
-5.763145	enrolling	-0.2401186
-5.763145	ensconced	-0.2386294
-5.161085	ensure	-0.6916279
-4.918047	enter	-0.2797312
-5.763145	entered	-0.2422462
-5.462115	entering	-0.241795
-5.462115	enterprise	-0.1834458
-5.763145	entertaining	-0.2409328
-5.064175	entertainment	-0.291154
-4.559025	enthusiasm	-0.3775716
-4.014957	entire	-0.5748428
-5.462115	entirely	-0.2108571
-5.161085	entirety	-0.4438835
-4.617017	entitled	-1.369619
-5.462115	entrance	-0.4717505
-5.763145	entrepreneur	-0.211099
-4.984993	entrepreneurial	-0.2623917
-5.286024	entrepreneurs	-0.2004844
-5.064175	entry	-0.8641152
-5.763145	envelop	-0.2354176
-4.440926	environment	-0.5264913
-5.286024	environmental	-0.2408929
-5.462115	environmentalist	-0.1834458
-5.064175	environmentalists	-0.5340793
-4.918047	environmentally	-0.7168214
-5.763145	envy	-0.2371472
-5.462115	epidemics	-0.2110974
-5.763145	epitome	-0.2371472
-5.462115	equal	-0.4717505
-4.860055	equally	-0.3132339
-5.763145	equate	-0.2413495
-4.382934	equipment	-0.6489938
-5.286024	equipped	-0.1991236
-4.860055	equivalent	-0.6599504
-4.420722	eradicated	-1.582282
-4.286024	eric	-0.4631611
-5.763145	ernst	-0.2425124
-5.763145	error	-0.211099
-5.763145	escalation	-0.217142
-5.763145	escalator	-0.2317363
-5.763145	escape	-0.242009
-5.462115	escaped	-0.2242061
-4.194943	especially	-0.3129741
-5.462115	esprit	-0.4809376
-4.808902	essential	-0.9907575
-4.300747	essentially	-0.4832225
-5.763145	established	-0.2424134
-5.462115	establishment	-0.1834458
-4.231666	estate	-0.8023666
-5.763145	estefany	-0.211099
-5.763145	esther	-0.211099
-4.984993	estimated	-0.3850791
-5.763145	estimates	-0.217142
-4.559025	etc	-1.198757
-5.763145	eternal	-0.2427575
-5.763145	ethel	-0.217142
-4.206842	europe	-1.000919
-4.683964	european	-0.432331
-4.462115	evangelicals	-0.7498106
-5.763145	evans	-0.2317363
-5.763145	evaporated	-0.2420241
-2.888084	even	-0.5101861
-4.348172	evening	-0.5015818
-4.129676	event	-0.7692142
-5.064175	events	-0.248752
-5.161085	eventually	-0.4671306
-2.911886	ever	-0.8800502
-5.462115	everest	-0.2005017
-3.048815	every	-1.009639
-3.194943	everybody	-0.6836903
-3.530149	everyone	-0.8206671
-3.193771	everything	-0.9208424
-4.984993	everywhere	-0.3145392
-5.763145	evict	-0.2317702
-5.462115	evidence	-0.1991965
-5.763145	evident	-0.2421659
-4.315987	evil	-0.4958166
-4.382934	exact	-0.8489881
-4.081903	exactly	-0.4768469
-5.763145	exaggeration	-0.211099
-5.286024	exam	-0.3269882
-5.763145	examine	-0.2329475
-5.064175	examined	-0.2619767
-4.808902	example	-0.6057488
-5.763145	examples	-0.211099
-5.462115	excellent	-0.4493015
-4.382934	except	-0.2561885
-5.286024	exception	-0.2305588
-5.763145	exceptional	-0.2422319
-5.462115	exchange	-0.4493015
-4.183361	excited	-1.209731
-5.286024	excitement	-0.3829563
-4.683964	exciting	-0.2591927
-5.763145	exclusively	-0.2412991
-5.763145	excruciating	-0.2427201
-4.532696	excuse	-1.074692
-5.763145	excuses	-0.2427777
-5.763145	execute	-0.2356866
-5.286024	executed	-0.2267901
-5.763145	executing	-0.2413495
-5.286024	executive	-0.3606598
-5.161085	executives	-0.1761427
-5.763145	exempt	-0.2427882
-5.763145	exercise	-0.211099
-4.763145	exhausted	-1.120618
-4.918047	exist	-0.4771573
-5.462115	existed	-0.4493015
-5.763145	existing	-0.2427755
-5.763145	exists	-0.211099
-5.763145	exits	-0.2419753
-5.161085	exodus	-0.6920722
-5.286024	exonerated	-0.3269882
-5.286024	expand	-0.3427753
-5.763145	expanded	-0.2329475
-5.763145	expanding	-0.211099
-4.860055	expect	-0.3498966
-5.462115	expectations	-0.2166059
-4.860055	expected	-0.5477706
-5.462115	expecting	-0.2262899
-4.271783	expedite	-1.192662
-5.763145	expel	-0.2411074
-4.315987	expense	-0.988351
-5.462115	expenses	-0.1834458
-4.271783	expensive	-0.503703
-4.860055	experience	-0.3708846
-4.984993	experienced	-0.3527124
-5.763145	experiencing	-0.211099
-5.763145	experiment	-0.211099
-5.161085	expert	-0.1705484
-5.161085	experts	-0.2856101
-4.401417	explain	-0.5546944
-4.860055	explained	-0.4367185
-5.064175	explode	-0.2539696
-5.763145	exploded	-0.2413127
-5.161085	explodes	-0.3019385
-5.462115	exploding	-0.2410848
-5.286024	explosion	-0.2095633
-5.763145	explosive	-0.2427837
-4.984993	export	-0.6384411
-5.462115	exports	-0.2045471
-5.763145	expose	-0.2421351
-5.161085	exposed	-0.2847642
-5.064175	exposing	-0.2335832
-5.763145	express	-0.2354176
-5.763145	expressed	-0.211099
-4.721752	expression	-0.4624445
-5.763145	expressions	-0.2396321
-5.462115	extended	-0.2427305
-5.763145	extending	-0.242759
-5.462115	extensions	-0.2091198
-5.763145	extensive	-0.2427897
-4.683964	extent	-0.7572005
-5.763145	extinction	-0.211099
-4.721752	extra	-0.3067092
-5.763145	extraordinarily	-0.2427395
-4.984993	extraordinary	-0.4808678
-5.462115	extreme	-0.4717505
-4.587054	extremely	-0.3563359
-5.763145	ey	-0.2354542
-4.315987	eye	-1.248675
-4.984993	eyes	-0.3660741
-5.763145	eyewitness	-0.233548
-4.649201	f	-1.237338
-5.462115	fabbricatore	-0.4493015
-4.984993	fabric	-0.6628053
-5.763145	fabricated	-0.211099
-5.763145	fabrizio	-0.211099
-5.462115	fabulous	-0.4553445
-4.139895	face	-0.7680928
-5.161085	facebook	-0.4658439
-5.763145	faced	-0.2413495
-5.462115	faces	-0.4699389
-5.763145	facilitate	-0.2421351
-4.401417	facing	-0.9610392
-3.713927	fact	-1.341159
-5.462115	factor	-0.2050255
-4.109932	factories	-0.7587972
-5.763145	factors	-0.2386294
-5.064175	factory	-0.4114435
-4.271783	facts	-0.9051203
-5.763145	fading	-0.2427732
-4.918047	fail	-0.3000081
-4.462115	failed	-0.2889981
-4.617017	failing	-0.5690053
-4.244631	failure	-0.8817512
-5.462115	failures	-0.2050255
-5.763145	fain	-0.2421786
-4.109932	fair	-0.6781309
-4.683964	fairly	-0.277852
-4.315987	fairness	-0.8584964
-4.763145	faith	-0.3021593
-5.763145	faithfully	-0.242789
-5.763145	faiths	-0.217142
-3.41484	fake	-1.127563
-5.763145	faked	-0.211099
-5.064175	fakers	-0.3770008
-4.763145	fall	-0.453375
-5.763145	fallen	-0.242786
-4.918047	falling	-0.3577766
-5.462115	falls	-0.2425656
-5.462115	false	-0.2107571
-4.129676	families	-0.8413659
-3.407119	family	-0.8879711
-4.617017	famous	-0.259669
-4.420722	fan	-0.9602449
-5.763145	fanatics	-0.2329475
-5.763145	fancier	-0.2427815
-5.286024	fancy	-0.242744
-5.462115	fani	-0.1834458
-5.763145	fanny	-0.217142
-4.984993	fans	-0.1609357
-3.85466	fantastic	-0.831181
-5.286024	fantastically	-0.3602685
-3.556319	far	-0.7677431
-5.462115	faraway	-0.2425664
-4.382934	farm	-0.5657952
-5.462115	farmer	-0.2165701
-4.507873	farmers	-0.3510484
-5.763145	farmhouses	-0.211099
-5.763145	farmland	-0.2400907
-4.984993	farms	-0.3248949
-5.763145	fascinated	-0.211099
-5.763145	fascinating	-0.211099
-5.462115	fascism	-0.4699389
-5.286024	fascist	-0.1786721
-4.763145	fascists	-0.6353337
-5.286024	fashion	-0.3427753
-5.161085	fashioned	-0.2322832
-3.535258	fast	-1.132936
-4.860055	faster	-0.4615372
-4.984993	fastest	-0.4529487
-4.315987	fat	-0.5805752
-5.763145	fatally	-0.2427823
-4.462115	fate	-1.534977
-3.844067	father	-0.4923939
-5.763145	fathers	-0.217142
-5.462115	faucet	-0.2302543
-5.286024	fault	-0.6105075
-4.150361	favor	-0.944654
-5.462115	favorable	-0.242747
-4.100387	favorite	-0.7081918
-5.763145	favors	-0.211099
-4.721752	favre	-0.3406514
-4.507873	fbi	-0.349051
-5.286024	fda	-0.2168597
-5.763145	fdr	-0.217142
-4.808902	fear	-0.3404815
-4.918047	feared	-0.6613841
-5.462115	feasible	-0.2104408
-5.286024	fed	-0.3825
-4.109932	federal	-0.7814364
-5.763145	federally	-0.211099
-4.072949	feel	-0.4128739
-4.587054	feeling	-0.2733655
-5.286024	feelings	-0.6105075
-4.484391	feels	-0.3079209
-4.365205	feet	-0.6647895
-5.763145	feisty	-0.2423729
-4.918047	fell	-0.4299371
-4.300747	fellas	-1.342215
-4.507873	felt	-0.409019
-4.231666	fema	-0.4611806
-5.763145	female	-0.211099
-4.532696	fentanyl	-0.2800902
-5.064175	fertile	-0.2973877
-5.064175	fertilization	-0.5016169
-5.763145	fetched	-0.211099
-3.758823	few	-0.6990009
-5.064175	fewer	-0.2323232
-5.462115	fewest	-0.2408997
-5.286024	fiction	-0.3546301
-4.507873	field	-0.6173053
-5.763145	fielder	-0.211099
-5.286024	fields	-0.2256926
-4.507873	fierce	-0.5851117
-5.763145	fierceness	-0.211099
-4.860055	fifteen	-0.2536795
-5.462115	fifth	-0.2104408
-4.649201	fifty	-1.355976
-3.543037	fight	-0.8570871
-4.721752	fighter	-0.624592
-4.918047	fighters	-0.2848487
-3.799357	fighting	-0.6224014
-4.984993	fights	-0.1818356
-4.315987	figure	-0.7213775
-4.315987	figured	-0.307006
-5.462115	figures	-0.2162222
-5.763145	figuring	-0.2416276
-4.617017	file	-0.6661706
-5.462115	filibuster	-0.2073308
-5.763145	filipinos	-0.217142
-4.462115	fill	-0.5109335
-3.970753	filled	-1.103642
-5.763145	filmed	-0.2317702
-5.763145	filth	-0.2317363
-5.763145	filthy	-0.217142
-4.617017	final	-0.4644117
-4.091047	finally	-0.5707274
-4.984993	finance	-0.3191536
-5.763145	financed	-0.2317363
-5.064175	finances	-0.3898971
-5.763145	financial	-0.2427515
-5.462115	financially	-0.2171404
-4.860055	financing	-0.5831502
-4.100387	find	-0.5871807
-4.984993	finding	-0.1905394
-4.183361	fine	-0.8602054
-5.161085	fined	-0.3188232
-5.064175	finest	-0.2879915
-5.763145	finger	-0.2415464
-5.286024	fingerprints	-0.1976987
-5.064175	fingers	-0.4178474
-4.331781	finish	-0.4482253
-4.219077	finished	-0.5706251
-5.064175	finishes	-0.1811817
-5.763145	finishing	-0.217142
-3.813755	fire	-0.4781792
-3.956965	fired	-0.9043136
-4.763145	firefighter	-0.370269
-4.984993	firefighters	-0.2377412
-5.462115	fireman	-0.2168263
-4.860055	firemen	-0.4038459
-5.763145	fires	-0.2367029
-5.763145	fireside	-0.2412991
-4.860055	firing	-0.2720408
-4.763145	firm	-0.1901401
-5.286024	firms	-0.3592473
-3.249927	first	-0.8473356
-5.462115	firsthand	-0.1834458
-5.286024	fish	-0.2024629
-5.064175	fist	-0.3778151
-5.763145	fistfight	-0.211099
-5.462115	fistfights	-0.2094945
-5.462115	fists	-0.242768
-4.808902	fit	-0.6100378
-5.763145	fits	-0.2367029
-5.161085	fitzgerald	-0.2836625
-3.642571	five	-0.7619314
-3.780874	fix	-1.02184
-4.150361	fixed	-0.6782712
-5.064175	fixing	-0.4177606
-4.081903	flag	-0.8739512
-4.984993	flags	-0.4344144
-4.984993	flame	-0.2121744
-5.286024	flames	-0.199252
-5.763145	flash	-0.217142
-5.462115	flawless	-0.4553445
-5.462115	flee	-0.2087739
-4.918047	flew	-0.2566567
-5.763145	flies	-0.211099
-4.532696	flights	-0.5253875
-5.763145	fling	-0.2367029
-5.763145	flinging	-0.2354176
-5.462115	flint	-0.2005017
-5.462115	flip	-0.2093165
-5.763145	flipped	-0.2354176
-5.763145	flipping	-0.2426691
-5.462115	flips	-0.4798669
-5.763145	float	-0.2354176
-5.462115	floated	-0.2413427
-5.462115	floating	-0.2420541
-5.462115	floats	-0.4796385
-4.860055	flood	-0.4780603
-4.918047	flooded	-0.6402672
-5.161085	flooding	-0.2081625
-4.984993	floor	-0.5535433
-5.462115	floors	-0.4753497
-4.17208	florida	-0.6884984
-5.763145	flourish	-0.211099
-5.763145	flow	-0.2386294
-4.860055	flowing	-0.4384858
-5.161085	flown	-0.4985236
-5.763145	flung	-0.2354176
-5.763145	flux	-0.2317363
-4.484391	fly	-0.5379127
-4.331781	flying	-0.550011
-5.763145	flyover	-0.2422004
-5.064175	focus	-0.863299
-5.462115	focused	-0.4796385
-5.763145	focusing	-0.2414359
-5.763145	fold	-0.2356866
-5.462115	folks	-0.4493015
-4.401417	follow	-0.3550628
-4.721752	followed	-0.3813364
-5.286024	followers	-0.2277507
-4.315987	following	-0.8089447
-5.763145	foment	-0.211099
-4.507873	food	-0.5294534
-5.462115	foods	-0.2136313
-4.763145	fool	-0.3032783
-4.721752	foolish	-0.3319681
-4.808902	fools	-0.4903438
-4.860055	foot	-0.3761819
-5.763145	footage	-0.217142
-4.286024	football	-0.569442
-5.763145	footing	-0.217142
-5.763145	footings	-0.2411811
-2.373979	for	-0.9508303
-5.286024	forbid	-0.6105075
-4.100387	force	-0.4475
-4.331781	forced	-0.5283678
-4.440926	forces	-1.190199
-5.763145	forcibly	-0.242771
-5.462115	forcing	-0.479552
-5.462115	ford	-0.2110982
-5.763145	forehead	-0.2317363
-3.691263	foreign	-1.163511
-4.984993	forest	-0.3260693
-4.484391	forever	-0.8394052
-3.888084	forget	-0.7443718
-5.763145	forgets	-0.2403945
-5.763145	forgetting	-0.211099
-5.462115	forgive	-0.4803977
-5.462115	forgiven	-0.4493015
-4.420722	forgot	-0.6066559
-5.763145	forgotten	-0.2367029
-4.462115	form	-0.5949795
-5.763145	formally	-0.2427785
-5.462115	format	-0.2142774
-5.064175	formed	-0.310085
-4.401417	former	-0.3550412
-4.808902	forms	-0.6081008
-5.763145	formula	-0.211099
-5.462115	formulas	-0.4493015
-5.286024	fort	-0.6421959
-4.808902	forth	-0.4861594
-4.860055	fortunately	-0.928594
-4.587054	fortune	-0.629821
-5.161085	forty	-0.4930501
-4.763145	forum	-0.1822889
-4.484391	forward	-0.4219286
-5.286024	fossil	-0.6421967
-4.507873	fought	-0.4093053
-4.918047	foul	-1.185142
-4.119692	found	-0.4328734
-5.763145	foundation	-0.2371472
-4.808902	foundations	-0.3903829
-5.462115	founded	-0.2354145
-5.064175	founder	-0.3987281
-3.065916	four	-1.27741
-5.462115	fourteen	-0.2418574
-5.462115	fourth	-0.2419715
-5.462115	fox	-0.4782933
-5.763145	foxx	-0.217142
-4.055575	frac	-1.102207
-3.977815	frack	-1.653242
-5.286024	fracker	-0.3269882
-3.956965	fracking	-0.7908652
-4.683964	fraction	-0.6685535
-4.507873	france	-0.5000934
-4.091047	francisco	-1.208543
-4.257995	franklin	-0.794121
-4.219077	frankly	-1.725892
-4.860055	fraternal	-0.9542193
-4.139895	fraud	-1.260557
-5.462115	frauds	-0.4493015
-4.683964	fraudulent	-0.3674389
-4.649201	fraudulently	-0.8511302
-5.161085	freaking	-0.2424704
-5.763145	fred	-0.2317363
-3.537836	free	-0.9049721
-4.532696	freedom	-0.7565166
-5.161085	freefall	-0.4699322
-5.763145	freely	-0.242765
-5.161085	freest	-0.672067
-5.763145	freezes	-0.211099
-5.462115	freezing	-0.2416095
-4.617017	french	-1.006478
-5.763145	frenchy	-0.2329475
-5.763145	freshman	-0.217142
-5.462115	fricking	-0.2424877
-5.161085	friday	-0.2108055
-5.763145	friedman	-0.211099
-3.669723	friend	-1.117051
-4.649201	friendly	-0.3869887
-3.876654	friends	-0.7732497
-5.462115	friendship	-0.2066213
-4.763145	fries	-0.3759427
-5.763145	frightened	-0.2367029
-5.763145	frisky	-0.2426998
-2.700187	from	-0.7720022
-3.828646	front	-0.9955464
-5.763145	frontiers	-0.2371472
-5.763145	frontline	-0.2423512
-5.763145	frosted	-0.2412991
-5.462115	froze	-0.2302203
-5.763145	frozen	-0.24278
-4.984993	fry	-0.3269839
-5.286024	fuel	-0.2109628
-5.161085	fulfill	-0.4674276
-4.401417	full	-0.389549
-4.331781	fully	-0.6956756
-4.206842	fun	-0.6617938
-5.462115	function	-0.2412375
-5.763145	functioning	-0.2427785
-5.286024	fund	-0.2091198
-4.808902	funding	-0.3051032
-5.462115	fundraiser	-0.4768319
-5.763145	funds	-0.211099
-5.286024	funeral	-0.1834449
-4.683964	funny	-0.3239434
-4.984993	furious	-0.3603113
-5.763145	furnace	-0.217142
-4.382934	furniture	-0.3971663
-4.348172	further	-0.5130832
-5.763145	furthermore	-0.217142
-5.763145	fuse	-0.211099
-3.963804	future	-0.58441
-4.721752	gabbard	-0.7481145
-5.286024	gabe	-0.3546406
-4.860055	gaetz	-0.3257086
-4.649201	gain	-0.3546967
-5.763145	gained	-0.211099
-5.763145	gaines	-0.211099
-4.532696	gains	-0.5833492
-5.763145	gallery	-0.2422117
-4.484391	gallon	-0.5896911
-5.286024	gallons	-0.1972704
-4.860055	gamble	-0.8635367
-5.763145	gamblers	-0.2411811
-5.462115	gambles	-0.1834458
-5.462115	gambling	-0.2328831
-4.300747	game	-0.5161768
-4.382934	games	-0.6767256
-3.717822	gang	-0.8401386
-3.808902	gangs	-0.957787
-5.763145	gangster	-0.2371472
-5.763145	gangsters	-0.211099
-4.440926	gantry	-0.6725054
-3.828646	garbage	-1.267868
-4.401417	garden	-0.4038749
-5.763145	gary	-0.2427673
-4.064175	gas	-0.7047362
-5.763145	gascon	-0.217142
-5.763145	gases	-0.217142
-4.257995	gasoline	-0.6666698
-5.763145	gate	-0.211099
-5.286024	gates	-0.1903028
-5.763145	gathered	-0.2427395
-5.462115	gathering	-0.2093554
-3.392077	gave	-1.124619
-4.17208	gavin	-1.210626
-4.721752	gee	-1.224838
-5.763145	geez	-0.217142
-4.860055	gender	-0.2516668
-5.462115	genders	-0.4553445
-5.763145	gene	-0.217142
-3.823626	general	-0.7494036
-5.064175	generally	-0.2507048
-4.300747	generals	-0.804328
-5.763145	generation	-0.2425012
-4.984993	generations	-0.4298687
-5.763145	generic	-0.211099
-4.617017	generous	-0.3126675
-4.918047	genes	-0.5205478
-5.763145	genetic	-0.2329475
-4.860055	genetics	-0.2947304
-4.219077	genius	-0.6782636
-4.808902	geniuses	-0.3901319
-5.763145	geno	-0.2329475
-4.315987	gentleman	-0.6652715
-4.507873	gentlemen	-0.6375954
-5.286024	gently	-0.6416876
-4.559025	george	-0.8847507
-3.905812	georgia	-0.6048341
-5.763145	german	-0.2427897
-5.462115	germans	-0.2418401
-4.559025	germany	-0.3699041
-5.462115	gestapo	-0.4808731
-2.589959	get	-0.937839
-5.462115	getaways	-0.1834458
-3.865518	gets	-0.4263469
-3.517632	getting	-0.5254347
-5.462115	ghalib	-0.2050255
-4.532696	giant	-0.2385919
-5.286024	gift	-0.2128638
-5.763145	gigantic	-0.2427448
-5.064175	gina	-0.2880297
-4.918047	ginger	-0.4736049
-4.559025	girl	-0.2998377
-4.918047	girlfriend	-0.3004255
-5.763145	girlfriends	-0.2418859
-4.231666	girls	-0.8850245
-3.170968	give	-1.105646
-4.014957	given	-0.5621827
-4.401417	gives	-0.3753899
-4.091047	giving	-0.543435
-4.721752	glad	-0.4238959
-5.763145	glamor	-0.2426938
-5.462115	glamorous	-0.2426736
-4.507873	glass	-0.4213773
-5.161085	glasses	-0.27372
-5.763145	gleaming	-0.2425656
-4.365205	glenn	-0.6757147
-5.763145	glitzy	-0.242789
-4.649201	global	-1.013297
-4.918047	globalist	-0.531499
-5.763145	globalists	-0.217142
-5.462115	gloom	-0.1991965
-4.331781	glorious	-1.446943
-4.984993	glory	-0.2464876
-5.763145	glowing	-0.217142
-5.763145	glue	-0.2367029
-2.862778	go	-0.9628777
-5.161085	goal	-0.3050504
-5.763145	gobbled	-0.2416644
-3.589959	god	-1.080743
-3.687598	goes	-0.6645486
-4.984993	goggles	-0.5535433
-2.133328	going	-1.935284
-4.763145	golan	-1.041377
-3.849331	gold	-0.8786674
-5.462115	goldberg	-0.216878
-4.100387	golden	-1.374769
-5.763145	goldwater	-0.2416381
-4.617017	golf	-0.2909805
-4.918047	golfer	-0.6137043
-4.984993	golfers	-0.2357181
-3.578454	gone	-0.8768084
-5.462115	gonzo	-0.4493015
-2.694217	good	-0.8325621
-5.462115	goodbye	-0.4553445
-5.286024	goodness	-0.2311357
-5.462115	goods	-0.4493015
-4.860055	google	-0.5828264
-4.420722	gop	-0.9189767
-4.617017	gorgeous	-0.2221951
-5.763145	gorka	-0.217142
-5.763145	gorsuch	-0.217142
-5.763145	gosar	-0.211099
-2.636689	got	-0.93628
-5.161085	gotaway	-0.2833201
-4.683964	gotaways	-0.491211
-4.150361	gotten	-0.4227034
-3.893913	government	-0.5898079
-3.737839	governor	-0.6115174
-4.462115	governors	-0.8922703
-4.484391	grab	-0.6797912
-4.587054	grabbed	-0.5648575
-5.763145	grabs	-0.2367029
-5.462115	gracious	-0.1991965
-4.721752	grade	-0.4009194
-5.763145	gradually	-0.2427283
-5.763145	graduate	-0.2419235
-5.286024	graduated	-0.2294329
-4.721752	graffiti	-0.6072549
-5.763145	graffitis	-0.2414359
-4.365205	graham	-0.4651964
-5.161085	grand	-0.5032244
-5.763145	grandchild	-0.217142
-5.462115	granddaughter	-0.2425656
-5.763145	grandfather	-0.2427418
-5.763145	grandmasters	-0.2426556
-5.462115	grandparents	-0.4553445
-5.763145	grant	-0.2386294
-5.462115	granted	-0.1834458
-4.462115	graph	-0.6596874
-5.763145	gras	-0.2414359
-5.763145	grasped	-0.242762
-4.649201	grass	-0.3885556
-5.763145	grateful	-0.233548
-5.763145	grave	-0.2427852
-5.763145	gravely	-0.2413758
-5.763145	graves	-0.2371472
-5.763145	gray	-0.211099
-2.50908	great	-0.7902426
-4.532696	greater	-0.9013715
-3.260718	greatest	-0.689356
-5.064175	greatly	-0.2636984
-4.918047	greatness	-0.3987015
-5.763145	greats	-0.2371472
-5.286024	greek	-0.2352819
-4.014957	green	-1.153123
-4.860055	greene	-0.5267071
-5.462115	greensboro	-0.1834458
-5.462115	greenville	-0.2098891
-5.763145	greenwood	-0.211099
-5.286024	greg	-0.211095
-4.984993	grenell	-0.3232342
-4.683964	grew	-1.112817
-5.763145	grid	-0.2412991
-5.763145	grief	-0.233548
-5.763145	grieve	-0.2412991
-5.763145	grieving	-0.2427875
-5.763145	griffith	-0.211099
-5.763145	grilling	-0.2405368
-5.763145	grim	-0.211099
-5.763145	grin	-0.217142
-4.231666	groceries	-0.6508505
-5.286024	grocery	-0.2156347
-4.440926	gross	-1.555141
-5.763145	grosse	-0.2427897
-4.139895	grossly	-1.522635
-5.763145	grothman	-0.211099
-4.382934	ground	-0.6695691
-3.68036	group	-0.9207621
-4.763145	groups	-0.2298833
-4.984993	grow	-0.372424
-4.721752	growing	-0.2836014
-5.064175	grown	-0.3651193
-4.808902	growth	-0.4623069
-5.286024	gt	-0.2061626
-4.721752	guarantee	-0.9343187
-4.984993	guaranteed	-0.428081
-5.763145	guaranteeing	-0.2427897
-5.763145	guatemala	-0.217142
-3.790017	guess	-0.7500172
-5.763145	guests	-0.2354542
-5.462115	guidance	-0.2110168
-5.763145	guided	-0.217142
-5.763145	guiding	-0.2423422
-5.462115	guillen	-0.4808229
-4.984993	guilty	-0.4232274
-5.064175	guitar	-0.3770998
-5.763145	guitars	-0.217142
-4.072949	gun	-0.5718877
-5.462115	gunned	-0.4804817
-5.161085	gunpoint	-0.4596342
-3.808902	guns	-0.8949083
-5.161085	gutfeld	-0.1770459
-4.984993	guts	-0.5774283
-5.763145	gutter	-0.2412991
-2.890989	guy	-0.9230855
-3.315987	guys	-0.7397596
-5.763145	gym	-0.217142
-5.763145	h	-0.2409501
-5.161085	habit	-0.4713319
-5.763145	hacked	-0.2317363
-2.54356	had	-0.872278
-4.860055	hadn	-0.9365168
-5.462115	hagan	-0.2077006
-5.763145	hagen	-0.211099
-5.763145	hagerman	-0.211099
-5.763145	hagerty	-0.217142
-4.507873	hair	-0.4030219
-5.462115	hairspray	-0.2110925
-3.754545	half	-0.7781026
-4.860055	hall	-0.3679282
-5.763145	hallowed	-0.242789
-5.462115	halls	-0.1834458
-5.763145	hamadeh	-0.211099
-4.984993	hamas	-0.646718
-5.462115	hammered	-0.4493015
-4.721752	hampshire	-0.5260563
-5.286024	hamtramck	-0.1803493
-5.763145	hancock	-0.211099
-3.950232	hand	-0.7456399
-5.763145	handbag	-0.217142
-5.161085	handed	-0.3363319
-4.331781	handgun	-1.611301
-5.462115	handguns	-0.210222
-5.763145	handing	-0.2416276
-5.763145	handkerchiefs	-0.211099
-4.081903	handle	-0.5038255
-5.462115	handled	-0.4736201
-5.763145	handling	-0.2367029
-4.109932	hands	-0.7730258
-5.462115	handshake	-0.4493015
-4.763145	handsome	-0.4787204
-5.286024	hang	-0.6410728
-5.462115	hanging	-0.2408591
-5.161085	hank	-0.666024
-4.721752	hannibal	-1.079173
-4.984993	hannity	-0.2409204
-3.198479	happen	-1.113199
-3.193771	happened	-1.228803
-3.561748	happening	-0.8806694
-3.808902	happens	-0.9053825
-5.286024	happier	-0.3531195
-4.721752	happiest	-0.6004809
-4.763145	happily	-0.5001376
-5.763145	happiness	-0.211099
-3.808902	happy	-0.7959758
-3.468679	hard	-0.7935322
-4.984993	hardened	-0.3065452
-4.860055	harder	-0.2997632
-5.064175	hardest	-0.2636073
-5.763145	hardline	-0.211099
-5.161085	hardly	-0.2397279
-3.876654	hardworking	-1.227911
-5.462115	harley	-0.47115
-4.918047	harm	-0.5355434
-5.462115	harold	-0.1834458
-5.462115	harper	-0.4493015
-4.984993	harriet	-0.3233645
-5.763145	harrigan	-0.217142
-3.209262	harris	-1.068622
-5.763145	harrison	-0.211099
-4.532696	harry	-1.030541
-5.763145	harshly	-0.211099
-5.462115	harvard	-0.4553445
-2.906416	has	-0.8656786
-4.331781	hasn	-1.429432
-4.072949	hat	-0.883272
-3.865518	hate	-0.8907514
-4.559025	hated	-0.4180151
-5.763145	hater	-0.217142
-4.484391	hates	-0.4563632
-5.161085	hating	-0.2132962
-4.763145	hatred	-0.3988146
-4.763145	hats	-0.3850871
-2.119791	have	-0.8875344
-3.804103	haven	-1.946062
-3.899822	having	-0.6321756
-5.286024	havoc	-0.3738892
-5.462115	hawaii	-0.1834458
-5.763145	hawks	-0.217142
-2.114882	he	-1.296337
-3.882331	head	-0.6755731
-5.286024	headache	-0.3269882
-4.860055	headed	-0.4986701
-4.559025	heading	-0.5360109
-5.462115	headline	-0.2324828
-4.984993	headlines	-0.3322639
-4.721752	heads	-0.4219589
-4.119692	health	-1.062084
-5.462115	healthcare	-0.2091198
-5.286024	healthier	-0.2103924
-4.047142	healthy	-0.9926406
-3.595828	hear	-0.6590849
-3.365205	heard	-0.7418189
-4.183361	hearing	-0.4003714
-5.763145	hearings	-0.211099
-5.763145	hearns	-0.211099
-4.382934	heart	-0.5575664
-5.763145	heartbreaking	-0.2426766
-5.763145	hearted	-0.2426661
-5.462115	heartfelt	-0.1834458
-5.763145	heartily	-0.211099
-5.763145	heartless	-0.211099
-4.649201	hearts	-0.5857123
-5.763145	heartwarming	-0.233548
-5.462115	hearty	-0.4791354
-4.559025	heat	-0.3269157
-5.161085	heating	-0.2860978
-4.683964	heaven	-0.46716
-5.286024	heavier	-0.3539695
-4.683964	heavy	-0.5110402
-5.763145	hegseth	-0.211099
-4.440926	heights	-0.6689605
-5.763145	heinous	-0.2426541
-5.763145	heitke	-0.217142
-4.420722	held	-0.4361746
-4.649201	helene	-0.9444637
-5.763145	helicopter	-0.2419235
-2.953585	hell	-1.086683
-3.794662	hello	-2.073441
-3.561748	help	-0.8095059
-4.219077	helped	-0.399364
-4.721752	helping	-0.2612806
-5.763145	helps	-0.2409328
-5.763145	hence	-0.217142
-2.821633	her	-0.6476298
-4.507873	herbert	-1.278738
-2.775926	here	-1.181215
-4.271783	hereby	-1.505097
-5.286024	heritage	-0.2275295
-5.763145	hern	-0.211099
-4.587054	hero	-0.6107332
-4.587054	heroes	-0.5489314
-4.683964	herschel	-0.4260844
-4.532696	herself	-0.642636
-5.763145	hershel	-0.242786
-4.532696	hey	-1.229624
-4.984993	heyday	-0.5535433
-4.984993	hezbollah	-0.6360552
-4.331781	hi	-1.2731
-5.763145	hide	-0.2354176
-3.984994	high	-0.6251707
-3.977815	higher	-0.9163252
-4.286024	highest	-0.4779654
-5.161085	highlight	-0.4596706
-4.331781	highly	-0.8820816
-5.161085	highway	-0.27372
-5.286024	highways	-0.6165504
-4.401417	hike	-1.598065
-4.984993	hikes	-0.6203046
-3.970753	hillary	-0.8156894
-5.763145	hills	-0.2317363
-5.763145	hilton	-0.2400907
-2.863324	him	-0.8431513
-4.617017	himself	-0.452494
-5.763145	hips	-0.2356866
-3.999717	hire	-0.8997735
-5.763145	hired	-0.2356866
-5.161085	hiring	-0.2355129
-3.26899	his	-0.4637001
-4.014957	hispanic	-0.6859281
-4.315987	hispanics	-0.8076368
-5.763145	historian	-0.217142
-4.683964	historic	-0.4601047
-4.860055	historically	-0.5846708
-2.973564	history	-1.512257
-3.683964	hit	-0.6367677
-5.763145	hitch	-0.217142
-4.365205	hitler	-1.044144
-5.161085	hitman	-0.27372
-4.860055	hits	-0.5150756
-5.462115	hitter	-0.2054062
-5.763145	hitters	-0.217142
-4.649201	hitting	-0.4463621
-5.763145	hmm	-0.2396321
-4.382934	hoax	-0.663232
-5.064175	hoaxes	-0.3497199
-5.462115	hoaxing	-0.4553445
-5.763145	hockey	-0.2427598
-4.984993	hoekstra	-0.5535433
-5.462115	hogan	-0.216516
-5.763145	hokey	-0.211099
-4.139895	hold	-0.6630644
-4.683964	holding	-0.2921617
-5.064175	holds	-0.4255573
-5.462115	hole	-0.2110442
-5.763145	holes	-0.2427545
-5.763145	hollowed	-0.2427882
-5.064175	hollywood	-0.4044512
-5.161085	holy	-0.5032161
-5.763145	homage	-0.2317363
-4.808902	homan	-0.2764488
-5.462115	hombres	-0.1834458
-3.882331	home	-0.5465862
-5.763145	homelessness	-0.217142
-4.808902	homes	-0.3431644
-5.763145	homeschool	-0.2427553
-5.763145	homestretch	-0.217142
-5.763145	hon	-0.211099
-5.286024	honduras	-0.3269882
-4.014957	honest	-0.7527294
-4.257995	honestly	-1.20014
-5.161085	honesty	-0.4654632
-4.984993	honey	-0.4170066
-5.064175	honeymoon	-0.5292298
-3.698687	honor	-1.186808
-5.462115	honorable	-0.2316656
-4.348172	honored	-0.886921
-4.808902	honoring	-0.4560068
-5.763145	hoodwinked	-0.233548
-5.763145	hook	-0.211099
-5.763145	hoosegow	-0.217142
-4.440926	hoover	-0.7718857
-3.694959	hope	-0.8445135
-4.331781	hopefully	-0.5780877
-5.763145	hopeless	-0.217142
-5.763145	hopes	-0.2332271
-5.064175	hoping	-0.2720576
-5.763145	hopped	-0.2422117
-5.763145	hopper	-0.211099
-5.161085	horn	-0.1973095
-5.064175	horrendous	-0.2160581
-5.763145	horrendously	-0.2427395
-3.426685	horrible	-0.6546214
-4.918047	horribly	-0.1785401
-5.286024	horrific	-0.3606828
-4.918047	horrifically	-0.3721045
-5.763145	horrified	-0.211099
-5.064175	horror	-0.8645532
-5.286024	horse	-0.3710099
-5.763145	horses	-0.211099
-4.231666	hospital	-0.4792062
-4.401417	hospitals	-0.4894048
-5.763145	host	-0.217142
-5.763145	hostage	-0.211099
-4.860055	hostages	-0.4092004
-5.763145	hosted	-0.2424719
-4.401417	hot	-0.3461969
-4.440926	hotel	-0.3660184
-4.649201	hotels	-0.3814689
-4.918047	hottest	-0.2930789
-4.091047	hour	-0.7760209
-4.139895	hours	-0.5943393
-3.808902	house	-0.8772562
-5.286024	household	-0.2109015
-4.484391	houses	-0.3425944
-5.462115	housewives	-0.2155741
-4.721752	housing	-0.3634127
-4.918047	houston	-0.3834808
-5.462115	hovde	-0.4493015
-2.956965	how	-1.052593
-4.918047	howard	-0.6911802
-5.286024	however	-0.6165504
-5.763145	howitzer	-0.2415937
-5.763145	hub	-0.2386294
-5.462115	hubcap	-0.1834458
-5.462115	hubcaps	-0.2309794
-5.161085	huckabee	-0.6976908
-5.763145	hud	-0.217142
-4.984993	hudson	-0.610501
-4.984993	hug	-0.2801034
-4.918047	huge	-0.2425094
-5.286024	hugged	-0.6348261
-5.161085	hugging	-0.3333399
-4.081903	huh	-1.910958
-5.763145	huizenga	-0.217142
-5.161085	hulk	-0.33197
-5.286024	hulks	-0.3542237
-4.139895	human	-0.8169389
-5.462115	humanity	-0.4493015
-5.763145	humberto	-0.2427897
-5.763145	hume	-0.2329475
-5.064175	humiliating	-0.8624925
-5.161085	humiliation	-0.3381726
-5.763145	humongous	-0.217142
-5.763145	humor	-0.241786
-5.763145	hump	-0.211099
-3.977815	hundred	-1.009157
-3.639293	hundreds	-1.636024
-4.808902	hung	-0.6338983
-4.918047	hungary	-0.5220601
-5.161085	hunt	-0.176375
-4.984993	hunter	-0.3510642
-4.014957	hurricane	-0.9341383
-4.507873	hurricanes	-0.4966341
-5.763145	hurried	-0.2427335
-4.17208	hurt	-0.5265452
-5.064175	hurting	-0.4326802
-5.462115	hurts	-0.2404027
-4.17208	husband	-0.5864305
-4.559025	husbands	-0.3577449
-5.763145	hussainy	-0.211099
-4.440926	hussein	-1.342385
-5.064175	hybrid	-0.5110519
-4.763145	hybrids	-0.4447787
-4.161085	hydrogen	-0.977706
-5.462115	hysteria	-0.2110434
-1.661948	i	-1.688762
-5.763145	icce	-0.217142
-3.694959	ice	-0.8590119
-4.038869	id	-1.135145
-5.763145	idaho	-0.211099
-3.617017	idea	-0.9649215
-5.286024	ideal	-0.2323753
-4.918047	ideally	-0.3332186
-4.649201	ideas	-0.4933337
-5.462115	identical	-0.240102
-4.721752	identification	-0.33652
-5.462115	identified	-0.1834458
-5.763145	identify	-0.241777
-4.984993	ideology	-0.2181217
-5.161085	idiot	-0.2109249
-4.617017	idiots	-0.4778462
-2.576754	if	-1.59589
-3.93707	iii	-0.9674359
-5.763145	ile	-0.217142
-4.559025	ill	-0.6678214
-3.388397	illegal	-1.198839
-4.420722	illegally	-0.4924652
-4.348172	illegals	-0.3418223
-5.286024	illinois	-0.3269882
-5.763145	illustrates	-0.2423107
-5.462115	image	-0.234412
-3.617017	imagine	-0.782533
-5.763145	imagined	-0.2356866
-5.462115	imam	-0.2171412
-5.462115	imams	-0.1991965
-5.763145	imbalanced	-0.211099
-5.161085	img	-0.1706997
-3.639293	immediately	-0.6871068
-4.984993	immense	-0.6796013
-5.763145	immigrant	-0.2329475
-5.161085	immigrants	-0.3249424
-4.00727	immigration	-0.9275603
-5.462115	immune	-0.2101663
-5.763145	immunity	-0.211099
-4.683964	impact	-0.5053754
-4.649201	impaired	-1.010545
-5.064175	impeach	-0.5688564
-5.161085	impeached	-0.491206
-5.763145	impeaching	-0.2421952
-5.462115	impeachment	-0.211095
-5.462115	impeachments	-0.2054062
-5.763145	imperative	-0.2354542
-5.763145	implanted	-0.2401186
-5.763145	imploded	-0.217142
-5.462115	imploding	-0.2415321
-5.763145	implored	-0.217142
-5.286024	import	-0.2419955
-5.763145	importance	-0.211099
-3.475343	important	-0.9231506
-4.331781	importantly	-0.8013467
-4.231666	imported	-1.142206
-4.984993	importing	-0.396911
-4.401417	impose	-1.282298
-5.462115	imposed	-0.2244821
-4.683964	impossible	-0.4726882
-5.462115	impostors	-0.2108966
-5.763145	impress	-0.2425566
-4.721752	impressed	-0.5720981
-5.064175	impressive	-0.5193198
-2.020655	in	-1.097362
-5.763145	inaccurate	-0.211099
-5.462115	inappropriate	-0.4791534
-4.984993	incapable	-0.6640327
-5.763145	incarcerated	-0.2409509
-5.763145	incensed	-0.2367029
-5.763145	incentive	-0.233548
-4.918047	incentives	-0.2816766
-4.348172	inch	-0.4528306
-4.860055	inches	-0.2730603
-5.462115	incident	-0.2045471
-5.763145	incline	-0.2422462
-5.286024	inclined	-0.2066832
-4.315987	include	-0.3947763
-4.683964	included	-0.2699669
-4.918047	includes	-0.2778128
-3.721752	including	-0.6546399
-5.462115	inclusion	-0.1834458
-5.286024	inclusive	-0.3485679
-5.763145	incoherent	-0.2427897
-4.401417	income	-0.6518811
-5.161085	incomes	-0.3067513
-4.231666	incompetence	-0.8352022
-3.746112	incompetent	-0.776164
-5.763145	incompetently	-0.2317702
-5.763145	incompetents	-0.2413127
-5.763145	incorrect	-0.211099
-4.683964	increase	-0.5073657
-5.763145	increases	-0.2386294
-5.462115	increasing	-0.4699727
-3.323812	incredible	-0.6776259
-5.462115	incredibly	-0.2110708
-4.617017	indeed	-0.2432311
-4.984993	indemnify	-0.6760401
-4.984993	independence	-0.3248639
-4.100387	independent	-0.8926336
-5.763145	independents	-0.217142
-5.763145	indescribable	-0.2317363
-5.462115	india	-0.4493015
-4.440926	indian	-0.6600241
-5.763145	indiana	-0.217142
-5.462115	indicate	-0.2148492
-5.763145	indication	-0.2367029
-5.763145	indict	-0.2421952
-4.918047	indicted	-0.3378131
-5.462115	indictments	-0.2081942
-5.763145	indignant	-0.2317363
-4.440926	individual	-0.7761195
-5.462115	individuals	-0.4553445
-5.763145	indoctrination	-0.2371472
-5.462115	industrial	-0.4809908
-5.763145	industrious	-0.217142
-4.161085	industry	-0.4686504
-4.918047	ineffective	-0.3023071
-5.763145	inevitable	-0.211099
-5.763145	inexpensive	-0.2426159
-5.763145	infect	-0.2406295
-5.462115	infected	-0.2163289
-3.278845	inflation	-1.040447
-5.763145	inflict	-0.2427763
-4.331781	inflicted	-1.32009
-5.763145	infliction	-0.2329475
-5.763145	influx	-0.2371472
-5.286024	inform	-0.3842344
-4.617017	information	-0.3329185
-5.763145	informed	-0.2423422
-5.763145	ingenious	-0.211099
-5.462115	ingraham	-0.2165701
-5.763145	inherently	-0.217142
-5.286024	inherit	-0.6311786
-5.286024	inheritance	-0.3543608
-5.462115	inherited	-0.2329084
-5.286024	initial	-0.2109982
-5.763145	initially	-0.2413758
-4.984993	injured	-0.3142898
-5.286024	injustice	-0.1833754
-5.763145	inmates	-0.2421786
-4.462115	innocent	-0.5622217
-4.030751	insane	-1.188738
-4.219077	insanity	-0.9393344
-5.462115	insert	-0.2355578
-5.462115	inserted	-0.4738891
-4.763145	inside	-0.334766
-5.763145	insider	-0.24278
-5.763145	insight	-0.211099
-5.763145	inspect	-0.233548
-5.763145	inspected	-0.2367029
-5.763145	inspecting	-0.2356866
-5.286024	inspiration	-0.3446912
-5.462115	inspired	-0.2107789
-5.064175	instagram	-0.3651193
-5.064175	instance	-0.8390051
-5.462115	instant	-0.2109305
-5.462115	instantly	-0.4795017
-4.300747	instead	-0.8780188
-5.763145	instigated	-0.2367029
-5.763145	instinct	-0.2412991
-5.763145	institute	-0.2329475
-3.970753	institutions	-0.9703869
-5.763145	instructive	-0.2317363
-5.462115	insulin	-0.1834458
-5.286024	insult	-0.3508732
-5.064175	insulted	-0.2612723
-5.763145	insulting	-0.211099
-4.860055	insurance	-0.60963
-5.064175	intellect	-0.8390051
-4.683964	intelligence	-0.4943955
-4.484391	intelligent	-0.3312506
-3.888084	interest	-0.8263509
-5.064175	interested	-0.5247924
-3.984994	interesting	-0.6030011
-5.462115	interestingly	-0.4553445
-5.763145	interests	-0.2386294
-5.763145	interfere	-0.2412991
-4.462115	interference	-0.8816937
-5.763145	interfering	-0.2412991
-4.808902	international	-0.390476
-4.808902	internet	-0.5052891
-5.462115	interpret	-0.4699727
-4.721752	interpreters	-0.4616452
-5.763145	interrupt	-0.2418469
-5.462115	interrupted	-0.4800494
-5.763145	interrupting	-0.2418469
-5.763145	interspersed	-0.2412991
-5.462115	interstate	-0.4809638
-4.244631	interview	-0.494661
-4.587054	interviewed	-0.3355045
-5.161085	interviews	-0.2848633
-2.90702	into	-0.9769279
-4.559025	introduce	-0.2845079
-4.860055	introduced	-0.4579909
-5.462115	introducing	-0.2108007
-5.763145	introduction	-0.211099
-5.462115	invade	-0.2423962
-3.85466	invaded	-1.480906
-5.763145	invading	-0.2317702
-3.790017	invasion	-0.8811426
-5.763145	invasions	-0.242729
-5.763145	invention	-0.2386294
-5.763145	inventions	-0.2386294
-5.763145	investigate	-0.2367029
-4.683964	investigated	-0.8003576
-4.440926	investigation	-0.5865884
-5.064175	investigations	-0.4029836
-5.462115	investment	-0.1991965
-5.763145	investments	-0.2317363
-5.462115	investor	-0.4768319
-5.763145	invigorates	-0.2411074
-5.462115	invisible	-0.1834458
-5.763145	invite	-0.2356866
-5.763145	invited	-0.2421952
-5.286024	inviting	-0.6338029
-4.231666	invoke	-1.75315
-4.244631	involved	-0.8360125
-4.382934	iowa	-0.9732732
-4.047142	iq	-0.8042386
-5.763145	iqs	-0.2386294
-4.348172	iran	-0.4086161
-5.763145	iranian	-0.2371472
-5.161085	iraq	-0.3012285
-5.462115	ireland	-0.4493015
-4.918047	iron	-0.672986
-4.683964	irredeemable	-0.4144089
-5.161085	irredeemables	-0.672067
-5.462115	irs	-0.2162222
-2.207808	is	-0.672055
-4.055575	isis	-0.8228002
-4.420722	island	-0.698487
-5.763145	islander	-0.242765
-5.763145	islanders	-0.211099
-3.589959	isn	-2.158365
-5.763145	isolation	-0.211099
-5.763145	isolationists	-0.211099
-4.119692	israel	-0.6828572
-5.763145	israeli	-0.2427845
-5.286024	issa	-0.351243
-4.507873	issue	-0.4667922
-5.161085	issued	-0.235733
-5.462115	issues	-0.4493015
-1.773829	it	-1.331748
-5.462115	italian	-0.1834458
-5.462115	italy	-0.2054062
-5.286024	item	-0.3485679
-5.462115	items	-0.4493015
-4.161085	its	-0.4574934
-4.617017	itself	-0.5486694
-5.161085	ivanka	-0.2277367
-4.721752	ivf	-0.6263671
-4.532696	j	-1.223581
-5.286024	jab	-0.3269882
-4.401417	jack	-0.672001
-5.064175	jacket	-0.2595696
-5.286024	jacks	-0.3427389
-5.064175	jackson	-0.2405067
-5.286024	jacky	-0.6421967
-5.763145	jacobs	-0.211099
-3.741956	jail	-1.308699
-3.905812	jails	-0.9461485
-5.763145	jake	-0.211099
-5.763145	jamaica	-0.217142
-4.918047	james	-0.3313942
-5.286024	jane	-0.6165504
-4.183361	january	-1.450738
-4.331781	japan	-0.5771186
-5.763145	jared	-0.2427897
-4.382934	jason	-0.6246324
-5.763145	jaws	-0.217142
-5.763145	jazzed	-0.2416644
-4.507873	jd	-0.5737038
-5.286024	jeff	-0.2396306
-5.462115	jefferson	-0.4493015
-5.462115	jentezen	-0.2110732
-5.763145	jeopardy	-0.217142
-5.763145	jeremiah	-0.211099
-5.286024	jerk	-0.1818236
